digraph Tree {
node [shape=box] ;
0 [label="capital-gain <= 5119.0\ngini = 0.366\nsamples = 32560\nvalue = [24719, 7841]"] ;
1 [label="age <= 29.5\ngini = 0.326\nsamples = 30982\nvalue = [24637, 6345]"] ;
0 -> 1 [labeldistance=2.5, labelangle=45, headlabel="True"] ;
2 [label="age <= 25.5\ngini = 0.085\nsamples = 9612\nvalue = [9185, 427]"] ;
1 -> 2 ;
3 [label="capital-loss <= 1881.5\ngini = 0.027\nsamples = 6377\nvalue = [6290, 87]"] ;
2 -> 3 ;
4 [label="age <= 23.5\ngini = 0.024\nsamples = 6342\nvalue = [6264, 78]"] ;
3 -> 4 ;
5 [label="hours-per-week <= 45.5\ngini = 0.006\nsamples = 4734\nvalue = [4719, 15]"] ;
4 -> 5 ;
6 [label="age <= 21.5\ngini = 0.003\nsamples = 4391\nvalue = [4384, 7]"] ;
5 -> 6 ;
7 [label="age <= 20.5\ngini = 0.001\nsamples = 2943\nvalue = [2942, 1]"] ;
6 -> 7 ;
8 [label="gini = 0.0\nsamples = 2288\nvalue = [2288, 0]"] ;
7 -> 8 ;
9 [label="hours-per-week <= 39.5\ngini = 0.003\nsamples = 655\nvalue = [654, 1]"] ;
7 -> 9 ;
10 [label="gini = 0.0\nsamples = 335\nvalue = [335, 0]"] ;
9 -> 10 ;
11 [label="hours-per-week <= 41.0\ngini = 0.006\nsamples = 320\nvalue = [319, 1]"] ;
9 -> 11 ;
12 [label="capital-gain <= 297.0\ngini = 0.007\nsamples = 298\nvalue = [297, 1]"] ;
11 -> 12 ;
13 [label="capital-loss <= 752.0\ngini = 0.007\nsamples = 289\nvalue = [288, 1]"] ;
12 -> 13 ;
14 [label="gini = 0.007\nsamples = 285\nvalue = [284, 1]"] ;
13 -> 14 ;
15 [label="gini = 0.0\nsamples = 4\nvalue = [4, 0]"] ;
13 -> 15 ;
16 [label="gini = 0.0\nsamples = 9\nvalue = [9, 0]"] ;
12 -> 16 ;
17 [label="gini = 0.0\nsamples = 22\nvalue = [22, 0]"] ;
11 -> 17 ;
18 [label="hours-per-week <= 31.0\ngini = 0.008\nsamples = 1448\nvalue = [1442, 6]"] ;
6 -> 18 ;
19 [label="gini = 0.0\nsamples = 481\nvalue = [481, 0]"] ;
18 -> 19 ;
20 [label="hours-per-week <= 32.5\ngini = 0.012\nsamples = 967\nvalue = [961, 6]"] ;
18 -> 20 ;
21 [label="age <= 22.5\ngini = 0.111\nsamples = 17\nvalue = [16, 1]"] ;
20 -> 21 ;
22 [label="gini = 0.32\nsamples = 5\nvalue = [4, 1]"] ;
21 -> 22 ;
23 [label="gini = 0.0\nsamples = 12\nvalue = [12, 0]"] ;
21 -> 23 ;
24 [label="hours-per-week <= 39.5\ngini = 0.01\nsamples = 950\nvalue = [945, 5]"] ;
20 -> 24 ;
25 [label="gini = 0.0\nsamples = 144\nvalue = [144, 0]"] ;
24 -> 25 ;
26 [label="hours-per-week <= 40.5\ngini = 0.012\nsamples = 806\nvalue = [801, 5]"] ;
24 -> 26 ;
27 [label="capital-gain <= 1052.5\ngini = 0.013\nsamples = 744\nvalue = [739, 5]"] ;
26 -> 27 ;
28 [label="age <= 22.5\ngini = 0.014\nsamples = 724\nvalue = [719, 5]"] ;
27 -> 28 ;
29 [label="capital-loss <= 859.5\ngini = 0.012\nsamples = 318\nvalue = [316, 2]"] ;
28 -> 29 ;
30 [label="gini = 0.013\nsamples = 317\nvalue = [315, 2]"] ;
29 -> 30 ;
31 [label="gini = 0.0\nsamples = 1\nvalue = [1, 0]"] ;
29 -> 31 ;
32 [label="capital-loss <= 546.0\ngini = 0.015\nsamples = 406\nvalue = [403, 3]"] ;
28 -> 32 ;
33 [label="gini = 0.015\nsamples = 403\nvalue = [400, 3]"] ;
32 -> 33 ;
34 [label="gini = 0.0\nsamples = 3\nvalue = [3, 0]"] ;
32 -> 34 ;
35 [label="gini = 0.0\nsamples = 20\nvalue = [20, 0]"] ;
27 -> 35 ;
36 [label="gini = 0.0\nsamples = 62\nvalue = [62, 0]"] ;
26 -> 36 ;
37 [label="hours-per-week <= 46.5\ngini = 0.046\nsamples = 343\nvalue = [335, 8]"] ;
5 -> 37 ;
38 [label="age <= 21.5\ngini = 0.32\nsamples = 5\nvalue = [4, 1]"] ;
37 -> 38 ;
39 [label="age <= 20.5\ngini = 0.444\nsamples = 3\nvalue = [2, 1]"] ;
38 -> 39 ;
40 [label="gini = 0.0\nsamples = 1\nvalue = [1, 0]"] ;
39 -> 40 ;
41 [label="gini = 0.5\nsamples = 2\nvalue = [1, 1]"] ;
39 -> 41 ;
42 [label="gini = 0.0\nsamples = 2\nvalue = [2, 0]"] ;
38 -> 42 ;
43 [label="age <= 21.5\ngini = 0.041\nsamples = 338\nvalue = [331, 7]"] ;
37 -> 43 ;
44 [label="hours-per-week <= 59.0\ngini = 0.012\nsamples = 165\nvalue = [164, 1]"] ;
43 -> 44 ;
45 [label="gini = 0.0\nsamples = 109\nvalue = [109, 0]"] ;
44 -> 45 ;
46 [label="age <= 19.5\ngini = 0.035\nsamples = 56\nvalue = [55, 1]"] ;
44 -> 46 ;
47 [label="age <= 18.5\ngini = 0.08\nsamples = 24\nvalue = [23, 1]"] ;
46 -> 47 ;
48 [label="gini = 0.0\nsamples = 8\nvalue = [8, 0]"] ;
47 -> 48 ;
49 [label="hours-per-week <= 63.0\ngini = 0.117\nsamples = 16\nvalue = [15, 1]"] ;
47 -> 49 ;
50 [label="gini = 0.165\nsamples = 11\nvalue = [10, 1]"] ;
49 -> 50 ;
51 [label="gini = 0.0\nsamples = 5\nvalue = [5, 0]"] ;
49 -> 51 ;
52 [label="gini = 0.0\nsamples = 32\nvalue = [32, 0]"] ;
46 -> 52 ;
53 [label="age <= 22.5\ngini = 0.067\nsamples = 173\nvalue = [167, 6]"] ;
43 -> 53 ;
54 [label="hours-per-week <= 49.0\ngini = 0.101\nsamples = 75\nvalue = [71, 4]"] ;
53 -> 54 ;
55 [label="gini = 0.198\nsamples = 9\nvalue = [8, 1]"] ;
54 -> 55 ;
56 [label="hours-per-week <= 67.5\ngini = 0.087\nsamples = 66\nvalue = [63, 3]"] ;
54 -> 56 ;
57 [label="hours-per-week <= 51.5\ngini = 0.068\nsamples = 57\nvalue = [55, 2]"] ;
56 -> 57 ;
58 [label="gini = 0.111\nsamples = 34\nvalue = [32, 2]"] ;
57 -> 58 ;
59 [label="gini = 0.0\nsamples = 23\nvalue = [23, 0]"] ;
57 -> 59 ;
60 [label="hours-per-week <= 71.0\ngini = 0.198\nsamples = 9\nvalue = [8, 1]"] ;
56 -> 60 ;
61 [label="gini = 0.5\nsamples = 2\nvalue = [1, 1]"] ;
60 -> 61 ;
62 [label="gini = 0.0\nsamples = 7\nvalue = [7, 0]"] ;
60 -> 62 ;
63 [label="hours-per-week <= 54.5\ngini = 0.04\nsamples = 98\nvalue = [96, 2]"] ;
53 -> 63 ;
64 [label="gini = 0.0\nsamples = 54\nvalue = [54, 0]"] ;
63 -> 64 ;
65 [label="hours-per-week <= 55.5\ngini = 0.087\nsamples = 44\nvalue = [42, 2]"] ;
63 -> 65 ;
66 [label="capital-loss <= 834.5\ngini = 0.18\nsamples = 10\nvalue = [9, 1]"] ;
65 -> 66 ;
67 [label="gini = 0.198\nsamples = 9\nvalue = [8, 1]"] ;
66 -> 67 ;
68 [label="gini = 0.0\nsamples = 1\nvalue = [1, 0]"] ;
66 -> 68 ;
69 [label="hours-per-week <= 62.5\ngini = 0.057\nsamples = 34\nvalue = [33, 1]"] ;
65 -> 69 ;
70 [label="hours-per-week <= 58.0\ngini = 0.08\nsamples = 24\nvalue = [23, 1]"] ;
69 -> 70 ;
71 [label="gini = 0.0\nsamples = 1\nvalue = [1, 0]"] ;
70 -> 71 ;
72 [label="gini = 0.083\nsamples = 23\nvalue = [22, 1]"] ;
70 -> 72 ;
73 [label="gini = 0.0\nsamples = 10\nvalue = [10, 0]"] ;
69 -> 73 ;
74 [label="hours-per-week <= 43.5\ngini = 0.075\nsamples = 1608\nvalue = [1545, 63]"] ;
4 -> 74 ;
75 [label="capital-gain <= 3005.0\ngini = 0.047\nsamples = 1285\nvalue = [1254, 31]"] ;
74 -> 75 ;
76 [label="hours-per-week <= 25.5\ngini = 0.045\nsamples = 1267\nvalue = [1238, 29]"] ;
75 -> 76 ;
77 [label="gini = 0.0\nsamples = 168\nvalue = [168, 0]"] ;
76 -> 77 ;
78 [label="hours-per-week <= 26.5\ngini = 0.051\nsamples = 1099\nvalue = [1070, 29]"] ;
76 -> 78 ;
79 [label="gini = 0.5\nsamples = 2\nvalue = [1, 1]"] ;
78 -> 79 ;
80 [label="age <= 24.5\ngini = 0.05\nsamples = 1097\nvalue = [1069, 28]"] ;
78 -> 80 ;
81 [label="hours-per-week <= 31.0\ngini = 0.034\nsamples = 521\nvalue = [512, 9]"] ;
80 -> 81 ;
82 [label="hours-per-week <= 28.5\ngini = 0.08\nsamples = 48\nvalue = [46, 2]"] ;
81 -> 82 ;
83 [label="gini = 0.0\nsamples = 1\nvalue = [1, 0]"] ;
82 -> 83 ;
84 [label="capital-gain <= 1101.0\ngini = 0.081\nsamples = 47\nvalue = [45, 2]"] ;
82 -> 84 ;
85 [label="capital-loss <= 860.5\ngini = 0.083\nsamples = 46\nvalue = [44, 2]"] ;
84 -> 85 ;
86 [label="gini = 0.085\nsamples = 45\nvalue = [43, 2]"] ;
85 -> 86 ;
87 [label="gini = 0.0\nsamples = 1\nvalue = [1, 0]"] ;
85 -> 87 ;
88 [label="gini = 0.0\nsamples = 1\nvalue = [1, 0]"] ;
84 -> 88 ;
89 [label="hours-per-week <= 35.5\ngini = 0.029\nsamples = 473\nvalue = [466, 7]"] ;
81 -> 89 ;
90 [label="hours-per-week <= 34.0\ngini = 0.046\nsamples = 42\nvalue = [41, 1]"] ;
89 -> 90 ;
91 [label="gini = 0.0\nsamples = 9\nvalue = [9, 0]"] ;
90 -> 91 ;
92 [label="gini = 0.059\nsamples = 33\nvalue = [32, 1]"] ;
90 -> 92 ;
93 [label="hours-per-week <= 39.5\ngini = 0.027\nsamples = 431\nvalue = [425, 6]"] ;
89 -> 93 ;
94 [label="gini = 0.0\nsamples = 24\nvalue = [24, 0]"] ;
93 -> 94 ;
95 [label="capital-gain <= 297.0\ngini = 0.029\nsamples = 407\nvalue = [401, 6]"] ;
93 -> 95 ;
96 [label="hours-per-week <= 41.0\ngini = 0.03\nsamples = 399\nvalue = [393, 6]"] ;
95 -> 96 ;
97 [label="capital-loss <= 795.0\ngini = 0.03\nsamples = 393\nvalue = [387, 6]"] ;
96 -> 97 ;
98 [label="gini = 0.03\nsamples = 388\nvalue = [382, 6]"] ;
97 -> 98 ;
99 [label="gini = 0.0\nsamples = 5\nvalue = [5, 0]"] ;
97 -> 99 ;
100 [label="gini = 0.0\nsamples = 6\nvalue = [6, 0]"] ;
96 -> 100 ;
101 [label="gini = 0.0\nsamples = 8\nvalue = [8, 0]"] ;
95 -> 101 ;
102 [label="hours-per-week <= 41.5\ngini = 0.064\nsamples = 576\nvalue = [557, 19]"] ;
80 -> 102 ;
103 [label="capital-loss <= 546.0\ngini = 0.062\nsamples = 564\nvalue = [546, 18]"] ;
102 -> 103 ;
104 [label="capital-gain <= 57.0\ngini = 0.063\nsamples = 552\nvalue = [534, 18]"] ;
103 -> 104 ;
105 [label="hours-per-week <= 36.5\ngini = 0.064\nsamples = 543\nvalue = [525, 18]"] ;
104 -> 105 ;
106 [label="hours-per-week <= 31.0\ngini = 0.048\nsamples = 82\nvalue = [80, 2]"] ;
105 -> 106 ;
107 [label="hours-per-week <= 29.0\ngini = 0.059\nsamples = 33\nvalue = [32, 1]"] ;
106 -> 107 ;
108 [label="gini = 0.0\nsamples = 3\nvalue = [3, 0]"] ;
107 -> 108 ;
109 [label="gini = 0.064\nsamples = 30\nvalue = [29, 1]"] ;
107 -> 109 ;
110 [label="hours-per-week <= 34.5\ngini = 0.04\nsamples = 49\nvalue = [48, 1]"] ;
106 -> 110 ;
111 [label="gini = 0.0\nsamples = 7\nvalue = [7, 0]"] ;
110 -> 111 ;
112 [label="hours-per-week <= 35.5\ngini = 0.046\nsamples = 42\nvalue = [41, 1]"] ;
110 -> 112 ;
113 [label="gini = 0.05\nsamples = 39\nvalue = [38, 1]"] ;
112 -> 113 ;
114 [label="gini = 0.0\nsamples = 3\nvalue = [3, 0]"] ;
112 -> 114 ;
115 [label="hours-per-week <= 37.5\ngini = 0.067\nsamples = 461\nvalue = [445, 16]"] ;
105 -> 115 ;
116 [label="gini = 0.245\nsamples = 7\nvalue = [6, 1]"] ;
115 -> 116 ;
117 [label="hours-per-week <= 39.0\ngini = 0.064\nsamples = 454\nvalue = [439, 15]"] ;
115 -> 117 ;
118 [label="gini = 0.133\nsamples = 14\nvalue = [13, 1]"] ;
117 -> 118 ;
119 [label="hours-per-week <= 40.5\ngini = 0.062\nsamples = 440\nvalue = [426, 14]"] ;
117 -> 119 ;
120 [label="gini = 0.062\nsamples = 439\nvalue = [425, 14]"] ;
119 -> 120 ;
121 [label="gini = 0.0\nsamples = 1\nvalue = [1, 0]"] ;
119 -> 121 ;
122 [label="gini = 0.0\nsamples = 9\nvalue = [9, 0]"] ;
104 -> 122 ;
123 [label="gini = 0.0\nsamples = 12\nvalue = [12, 0]"] ;
103 -> 123 ;
124 [label="hours-per-week <= 42.5\ngini = 0.153\nsamples = 12\nvalue = [11, 1]"] ;
102 -> 124 ;
125 [label="gini = 0.32\nsamples = 5\nvalue = [4, 1]"] ;
124 -> 125 ;
126 [label="gini = 0.0\nsamples = 7\nvalue = [7, 0]"] ;
124 -> 126 ;
127 [label="capital-gain <= 3120.0\ngini = 0.198\nsamples = 18\nvalue = [16, 2]"] ;
75 -> 127 ;
128 [label="gini = 0.0\nsamples = 1\nvalue = [0, 1]"] ;
127 -> 128 ;
129 [label="age <= 24.5\ngini = 0.111\nsamples = 17\nvalue = [16, 1]"] ;
127 -> 129 ;
130 [label="capital-gain <= 4147.0\ngini = 0.32\nsamples = 5\nvalue = [4, 1]"] ;
129 -> 130 ;
131 [label="gini = 0.0\nsamples = 2\nvalue = [2, 0]"] ;
130 -> 131 ;
132 [label="capital-gain <= 4699.5\ngini = 0.444\nsamples = 3\nvalue = [2, 1]"] ;
130 -> 132 ;
133 [label="gini = 0.0\nsamples = 1\nvalue = [0, 1]"] ;
132 -> 133 ;
134 [label="gini = 0.0\nsamples = 2\nvalue = [2, 0]"] ;
132 -> 134 ;
135 [label="gini = 0.0\nsamples = 12\nvalue = [12, 0]"] ;
129 -> 135 ;
136 [label="hours-per-week <= 44.5\ngini = 0.179\nsamples = 323\nvalue = [291, 32]"] ;
74 -> 136 ;
137 [label="age <= 24.5\ngini = 0.42\nsamples = 10\nvalue = [7, 3]"] ;
136 -> 137 ;
138 [label="gini = 0.32\nsamples = 5\nvalue = [4, 1]"] ;
137 -> 138 ;
139 [label="gini = 0.48\nsamples = 5\nvalue = [3, 2]"] ;
137 -> 139 ;
140 [label="hours-per-week <= 68.0\ngini = 0.168\nsamples = 313\nvalue = [284, 29]"] ;
136 -> 140 ;
141 [label="age <= 24.5\ngini = 0.157\nsamples = 291\nvalue = [266, 25]"] ;
140 -> 141 ;
142 [label="hours-per-week <= 62.5\ngini = 0.121\nsamples = 154\nvalue = [144, 10]"] ;
141 -> 142 ;
143 [label="capital-gain <= 1052.5\ngini = 0.128\nsamples = 145\nvalue = [135, 10]"] ;
142 -> 143 ;
144 [label="capital-loss <= 704.0\ngini = 0.133\nsamples = 140\nvalue = [130, 10]"] ;
143 -> 144 ;
145 [label="hours-per-week <= 55.5\ngini = 0.135\nsamples = 137\nvalue = [127, 10]"] ;
144 -> 145 ;
146 [label="hours-per-week <= 48.5\ngini = 0.141\nsamples = 118\nvalue = [109, 9]"] ;
145 -> 146 ;
147 [label="hours-per-week <= 46.0\ngini = 0.117\nsamples = 48\nvalue = [45, 3]"] ;
146 -> 147 ;
148 [label="gini = 0.145\nsamples = 38\nvalue = [35, 3]"] ;
147 -> 148 ;
149 [label="gini = 0.0\nsamples = 10\nvalue = [10, 0]"] ;
147 -> 149 ;
150 [label="hours-per-week <= 49.5\ngini = 0.157\nsamples = 70\nvalue = [64, 6]"] ;
146 -> 150 ;
151 [label="gini = 0.375\nsamples = 4\nvalue = [3, 1]"] ;
150 -> 151 ;
152 [label="hours-per-week <= 54.5\ngini = 0.14\nsamples = 66\nvalue = [61, 5]"] ;
150 -> 152 ;
153 [label="hours-per-week <= 51.5\ngini = 0.133\nsamples = 56\nvalue = [52, 4]"] ;
152 -> 153 ;
154 [label="gini = 0.137\nsamples = 54\nvalue = [50, 4]"] ;
153 -> 154 ;
155 [label="gini = 0.0\nsamples = 2\nvalue = [2, 0]"] ;
153 -> 155 ;
156 [label="gini = 0.18\nsamples = 10\nvalue = [9, 1]"] ;
152 -> 156 ;
157 [label="hours-per-week <= 59.0\ngini = 0.1\nsamples = 19\nvalue = [18, 1]"] ;
145 -> 157 ;
158 [label="gini = 0.0\nsamples = 3\nvalue = [3, 0]"] ;
157 -> 158 ;
159 [label="gini = 0.117\nsamples = 16\nvalue = [15, 1]"] ;
157 -> 159 ;
160 [label="gini = 0.0\nsamples = 3\nvalue = [3, 0]"] ;
144 -> 160 ;
161 [label="gini = 0.0\nsamples = 5\nvalue = [5, 0]"] ;
143 -> 161 ;
162 [label="gini = 0.0\nsamples = 9\nvalue = [9, 0]"] ;
142 -> 162 ;
163 [label="hours-per-week <= 55.5\ngini = 0.195\nsamples = 137\nvalue = [122, 15]"] ;
141 -> 163 ;
164 [label="capital-gain <= 2850.0\ngini = 0.168\nsamples = 108\nvalue = [98, 10]"] ;
163 -> 164 ;
165 [label="hours-per-week <= 45.5\ngini = 0.157\nsamples = 105\nvalue = [96, 9]"] ;
164 -> 165 ;
166 [label="capital-loss <= 752.0\ngini = 0.219\nsamples = 40\nvalue = [35, 5]"] ;
165 -> 166 ;
167 [label="capital-gain <= 1177.0\ngini = 0.224\nsamples = 39\nvalue = [34, 5]"] ;
166 -> 167 ;
168 [label="gini = 0.229\nsamples = 38\nvalue = [33, 5]"] ;
167 -> 168 ;
169 [label="gini = 0.0\nsamples = 1\nvalue = [1, 0]"] ;
167 -> 169 ;
170 [label="gini = 0.0\nsamples = 1\nvalue = [1, 0]"] ;
166 -> 170 ;
171 [label="hours-per-week <= 53.5\ngini = 0.116\nsamples = 65\nvalue = [61, 4]"] ;
165 -> 171 ;
172 [label="capital-gain <= 1087.0\ngini = 0.1\nsamples = 57\nvalue = [54, 3]"] ;
171 -> 172 ;
173 [label="hours-per-week <= 49.0\ngini = 0.107\nsamples = 53\nvalue = [50, 3]"] ;
172 -> 173 ;
174 [label="hours-per-week <= 47.0\ngini = 0.153\nsamples = 12\nvalue = [11, 1]"] ;
173 -> 174 ;
175 [label="gini = 0.0\nsamples = 2\nvalue = [2, 0]"] ;
174 -> 175 ;
176 [label="gini = 0.18\nsamples = 10\nvalue = [9, 1]"] ;
174 -> 176 ;
177 [label="hours-per-week <= 51.0\ngini = 0.093\nsamples = 41\nvalue = [39, 2]"] ;
173 -> 177 ;
178 [label="gini = 0.097\nsamples = 39\nvalue = [37, 2]"] ;
177 -> 178 ;
179 [label="gini = 0.0\nsamples = 2\nvalue = [2, 0]"] ;
177 -> 179 ;
180 [label="gini = 0.0\nsamples = 4\nvalue = [4, 0]"] ;
172 -> 180 ;
181 [label="gini = 0.219\nsamples = 8\nvalue = [7, 1]"] ;
171 -> 181 ;
182 [label="capital-gain <= 3214.0\ngini = 0.444\nsamples = 3\nvalue = [2, 1]"] ;
164 -> 182 ;
183 [label="gini = 0.0\nsamples = 1\nvalue = [0, 1]"] ;
182 -> 183 ;
184 [label="gini = 0.0\nsamples = 2\nvalue = [2, 0]"] ;
182 -> 184 ;
185 [label="hours-per-week <= 58.0\ngini = 0.285\nsamples = 29\nvalue = [24, 5]"] ;
163 -> 185 ;
186 [label="gini = 0.0\nsamples = 1\nvalue = [0, 1]"] ;
185 -> 186 ;
187 [label="hours-per-week <= 62.5\ngini = 0.245\nsamples = 28\nvalue = [24, 4]"] ;
185 -> 187 ;
188 [label="capital-gain <= 1414.5\ngini = 0.269\nsamples = 25\nvalue = [21, 4]"] ;
187 -> 188 ;
189 [label="capital-loss <= 795.0\ngini = 0.287\nsamples = 23\nvalue = [19, 4]"] ;
188 -> 189 ;
190 [label="gini = 0.308\nsamples = 21\nvalue = [17, 4]"] ;
189 -> 190 ;
191 [label="gini = 0.0\nsamples = 2\nvalue = [2, 0]"] ;
189 -> 191 ;
192 [label="gini = 0.0\nsamples = 2\nvalue = [2, 0]"] ;
188 -> 192 ;
193 [label="gini = 0.0\nsamples = 3\nvalue = [3, 0]"] ;
187 -> 193 ;
194 [label="hours-per-week <= 73.5\ngini = 0.298\nsamples = 22\nvalue = [18, 4]"] ;
140 -> 194 ;
195 [label="age <= 24.5\ngini = 0.48\nsamples = 5\nvalue = [3, 2]"] ;
194 -> 195 ;
196 [label="hours-per-week <= 71.0\ngini = 0.444\nsamples = 3\nvalue = [1, 2]"] ;
195 -> 196 ;
197 [label="gini = 0.5\nsamples = 2\nvalue = [1, 1]"] ;
196 -> 197 ;
198 [label="gini = 0.0\nsamples = 1\nvalue = [0, 1]"] ;
196 -> 198 ;
199 [label="gini = 0.0\nsamples = 2\nvalue = [2, 0]"] ;
195 -> 199 ;
200 [label="hours-per-week <= 98.5\ngini = 0.208\nsamples = 17\nvalue = [15, 2]"] ;
194 -> 200 ;
201 [label="hours-per-week <= 79.0\ngini = 0.133\nsamples = 14\nvalue = [13, 1]"] ;
200 -> 201 ;
202 [label="gini = 0.0\nsamples = 5\nvalue = [5, 0]"] ;
201 -> 202 ;
203 [label="hours-per-week <= 82.0\ngini = 0.198\nsamples = 9\nvalue = [8, 1]"] ;
201 -> 203 ;
204 [label="gini = 0.375\nsamples = 4\nvalue = [3, 1]"] ;
203 -> 204 ;
205 [label="gini = 0.0\nsamples = 5\nvalue = [5, 0]"] ;
203 -> 205 ;
206 [label="age <= 24.5\ngini = 0.444\nsamples = 3\nvalue = [2, 1]"] ;
200 -> 206 ;
207 [label="gini = 0.0\nsamples = 1\nvalue = [1, 0]"] ;
206 -> 207 ;
208 [label="gini = 0.5\nsamples = 2\nvalue = [1, 1]"] ;
206 -> 208 ;
209 [label="age <= 21.5\ngini = 0.382\nsamples = 35\nvalue = [26, 9]"] ;
3 -> 209 ;
210 [label="gini = 0.0\nsamples = 13\nvalue = [13, 0]"] ;
209 -> 210 ;
211 [label="hours-per-week <= 35.5\ngini = 0.483\nsamples = 22\nvalue = [13, 9]"] ;
209 -> 211 ;
212 [label="gini = 0.0\nsamples = 4\nvalue = [4, 0]"] ;
211 -> 212 ;
213 [label="capital-loss <= 2116.0\ngini = 0.5\nsamples = 18\nvalue = [9, 9]"] ;
211 -> 213 ;
214 [label="capital-loss <= 1894.5\ngini = 0.473\nsamples = 13\nvalue = [8, 5]"] ;
213 -> 214 ;
215 [label="gini = 0.0\nsamples = 2\nvalue = [0, 2]"] ;
214 -> 215 ;
216 [label="hours-per-week <= 36.5\ngini = 0.397\nsamples = 11\nvalue = [8, 3]"] ;
214 -> 216 ;
217 [label="gini = 0.0\nsamples = 1\nvalue = [0, 1]"] ;
216 -> 217 ;
218 [label="age <= 23.5\ngini = 0.32\nsamples = 10\nvalue = [8, 2]"] ;
216 -> 218 ;
219 [label="gini = 0.0\nsamples = 4\nvalue = [4, 0]"] ;
218 -> 219 ;
220 [label="capital-loss <= 1978.5\ngini = 0.444\nsamples = 6\nvalue = [4, 2]"] ;
218 -> 220 ;
221 [label="age <= 24.5\ngini = 0.444\nsamples = 3\nvalue = [1, 2]"] ;
220 -> 221 ;
222 [label="capital-loss <= 1938.0\ngini = 0.5\nsamples = 2\nvalue = [1, 1]"] ;
221 -> 222 ;
223 [label="gini = 0.0\nsamples = 1\nvalue = [0, 1]"] ;
222 -> 223 ;
224 [label="gini = 0.0\nsamples = 1\nvalue = [1, 0]"] ;
222 -> 224 ;
225 [label="gini = 0.0\nsamples = 1\nvalue = [0, 1]"] ;
221 -> 225 ;
226 [label="gini = 0.0\nsamples = 3\nvalue = [3, 0]"] ;
220 -> 226 ;
227 [label="capital-loss <= 2317.5\ngini = 0.32\nsamples = 5\nvalue = [1, 4]"] ;
213 -> 227 ;
228 [label="gini = 0.0\nsamples = 2\nvalue = [0, 2]"] ;
227 -> 228 ;
229 [label="capital-loss <= 2468.0\ngini = 0.444\nsamples = 3\nvalue = [1, 2]"] ;
227 -> 229 ;
230 [label="gini = 0.0\nsamples = 1\nvalue = [1, 0]"] ;
229 -> 230 ;
231 [label="gini = 0.0\nsamples = 2\nvalue = [0, 2]"] ;
229 -> 231 ;
232 [label="capital-loss <= 1805.0\ngini = 0.188\nsamples = 3235\nvalue = [2895, 340]"] ;
2 -> 232 ;
233 [label="hours-per-week <= 40.5\ngini = 0.177\nsamples = 3170\nvalue = [2858, 312]"] ;
232 -> 233 ;
234 [label="age <= 28.5\ngini = 0.131\nsamples = 2206\nvalue = [2050, 156]"] ;
233 -> 234 ;
235 [label="hours-per-week <= 37.5\ngini = 0.109\nsamples = 1680\nvalue = [1583, 97]"] ;
234 -> 235 ;
236 [label="age <= 26.5\ngini = 0.04\nsamples = 396\nvalue = [388, 8]"] ;
235 -> 236 ;
237 [label="gini = 0.0\nsamples = 146\nvalue = [146, 0]"] ;
236 -> 237 ;
238 [label="hours-per-week <= 15.5\ngini = 0.062\nsamples = 250\nvalue = [242, 8]"] ;
236 -> 238 ;
239 [label="gini = 0.0\nsamples = 29\nvalue = [29, 0]"] ;
238 -> 239 ;
240 [label="hours-per-week <= 16.5\ngini = 0.07\nsamples = 221\nvalue = [213, 8]"] ;
238 -> 240 ;
241 [label="age <= 27.5\ngini = 0.278\nsamples = 6\nvalue = [5, 1]"] ;
240 -> 241 ;
242 [label="gini = 0.0\nsamples = 1\nvalue = [1, 0]"] ;
241 -> 242 ;
243 [label="gini = 0.32\nsamples = 5\nvalue = [4, 1]"] ;
241 -> 243 ;
244 [label="hours-per-week <= 35.5\ngini = 0.063\nsamples = 215\nvalue = [208, 7]"] ;
240 -> 244 ;
245 [label="age <= 27.5\ngini = 0.059\nsamples = 198\nvalue = [192, 6]"] ;
244 -> 245 ;
246 [label="hours-per-week <= 24.5\ngini = 0.039\nsamples = 100\nvalue = [98, 2]"] ;
245 -> 246 ;
247 [label="hours-per-week <= 23.0\ngini = 0.087\nsamples = 22\nvalue = [21, 1]"] ;
246 -> 247 ;
248 [label="gini = 0.0\nsamples = 17\nvalue = [17, 0]"] ;
247 -> 248 ;
249 [label="gini = 0.32\nsamples = 5\nvalue = [4, 1]"] ;
247 -> 249 ;
250 [label="hours-per-week <= 34.5\ngini = 0.025\nsamples = 78\nvalue = [77, 1]"] ;
246 -> 250 ;
251 [label="gini = 0.0\nsamples = 45\nvalue = [45, 0]"] ;
250 -> 251 ;
252 [label="capital-gain <= 1954.0\ngini = 0.059\nsamples = 33\nvalue = [32, 1]"] ;
250 -> 252 ;
253 [label="gini = 0.061\nsamples = 32\nvalue = [31, 1]"] ;
252 -> 253 ;
254 [label="gini = 0.0\nsamples = 1\nvalue = [1, 0]"] ;
252 -> 254 ;
255 [label="hours-per-week <= 29.0\ngini = 0.078\nsamples = 98\nvalue = [94, 4]"] ;
245 -> 255 ;
256 [label="hours-per-week <= 20.5\ngini = 0.053\nsamples = 37\nvalue = [36, 1]"] ;
255 -> 256 ;
257 [label="hours-per-week <= 19.0\ngini = 0.095\nsamples = 20\nvalue = [19, 1]"] ;
256 -> 257 ;
258 [label="gini = 0.0\nsamples = 3\nvalue = [3, 0]"] ;
257 -> 258 ;
259 [label="capital-gain <= 1551.5\ngini = 0.111\nsamples = 17\nvalue = [16, 1]"] ;
257 -> 259 ;
260 [label="gini = 0.117\nsamples = 16\nvalue = [15, 1]"] ;
259 -> 260 ;
261 [label="gini = 0.0\nsamples = 1\nvalue = [1, 0]"] ;
259 -> 261 ;
262 [label="gini = 0.0\nsamples = 17\nvalue = [17, 0]"] ;
256 -> 262 ;
263 [label="hours-per-week <= 31.0\ngini = 0.094\nsamples = 61\nvalue = [58, 3]"] ;
255 -> 263 ;
264 [label="capital-loss <= 870.0\ngini = 0.121\nsamples = 31\nvalue = [29, 2]"] ;
263 -> 264 ;
265 [label="gini = 0.124\nsamples = 30\nvalue = [28, 2]"] ;
264 -> 265 ;
266 [label="gini = 0.0\nsamples = 1\nvalue = [1, 0]"] ;
264 -> 266 ;
267 [label="hours-per-week <= 33.5\ngini = 0.064\nsamples = 30\nvalue = [29, 1]"] ;
263 -> 267 ;
268 [label="gini = 0.0\nsamples = 4\nvalue = [4, 0]"] ;
267 -> 268 ;
269 [label="capital-gain <= 1231.5\ngini = 0.074\nsamples = 26\nvalue = [25, 1]"] ;
267 -> 269 ;
270 [label="gini = 0.077\nsamples = 25\nvalue = [24, 1]"] ;
269 -> 270 ;
271 [label="gini = 0.0\nsamples = 1\nvalue = [1, 0]"] ;
269 -> 271 ;
272 [label="hours-per-week <= 36.5\ngini = 0.111\nsamples = 17\nvalue = [16, 1]"] ;
244 -> 272 ;
273 [label="age <= 27.5\ngini = 0.198\nsamples = 9\nvalue = [8, 1]"] ;
272 -> 273 ;
274 [label="capital-gain <= 2432.5\ngini = 0.278\nsamples = 6\nvalue = [5, 1]"] ;
273 -> 274 ;
275 [label="gini = 0.32\nsamples = 5\nvalue = [4, 1]"] ;
274 -> 275 ;
276 [label="gini = 0.0\nsamples = 1\nvalue = [1, 0]"] ;
274 -> 276 ;
277 [label="gini = 0.0\nsamples = 3\nvalue = [3, 0]"] ;
273 -> 277 ;
278 [label="gini = 0.0\nsamples = 8\nvalue = [8, 0]"] ;
272 -> 278 ;
279 [label="capital-gain <= 3120.0\ngini = 0.129\nsamples = 1284\nvalue = [1195, 89]"] ;
235 -> 279 ;
280 [label="capital-gain <= 3005.0\ngini = 0.131\nsamples = 1262\nvalue = [1173, 89]"] ;
279 -> 280 ;
281 [label="age <= 26.5\ngini = 0.127\nsamples = 1259\nvalue = [1173, 86]"] ;
280 -> 281 ;
282 [label="hours-per-week <= 39.0\ngini = 0.1\nsamples = 396\nvalue = [375, 21]"] ;
281 -> 282 ;
283 [label="gini = 0.0\nsamples = 11\nvalue = [11, 0]"] ;
282 -> 283 ;
284 [label="capital-gain <= 527.5\ngini = 0.103\nsamples = 385\nvalue = [364, 21]"] ;
282 -> 284 ;
285 [label="capital-loss <= 797.0\ngini = 0.105\nsamples = 377\nvalue = [356, 21]"] ;
284 -> 285 ;
286 [label="gini = 0.106\nsamples = 373\nvalue = [352, 21]"] ;
285 -> 286 ;
287 [label="gini = 0.0\nsamples = 4\nvalue = [4, 0]"] ;
285 -> 287 ;
288 [label="gini = 0.0\nsamples = 8\nvalue = [8, 0]"] ;
284 -> 288 ;
289 [label="capital-gain <= 1087.0\ngini = 0.139\nsamples = 863\nvalue = [798, 65]"] ;
281 -> 289 ;
290 [label="capital-loss <= 1571.5\ngini = 0.141\nsamples = 849\nvalue = [784, 65]"] ;
289 -> 290 ;
291 [label="capital-loss <= 1486.0\ngini = 0.143\nsamples = 841\nvalue = [776, 65]"] ;
290 -> 291 ;
292 [label="capital-loss <= 77.5\ngini = 0.141\nsamples = 840\nvalue = [776, 64]"] ;
291 -> 292 ;
293 [label="hours-per-week <= 38.5\ngini = 0.141\nsamples = 836\nvalue = [772, 64]"] ;
292 -> 293 ;
294 [label="age <= 27.5\ngini = 0.198\nsamples = 18\nvalue = [16, 2]"] ;
293 -> 294 ;
295 [label="gini = 0.165\nsamples = 11\nvalue = [10, 1]"] ;
294 -> 295 ;
296 [label="gini = 0.245\nsamples = 7\nvalue = [6, 1]"] ;
294 -> 296 ;
297 [label="age <= 27.5\ngini = 0.14\nsamples = 818\nvalue = [756, 62]"] ;
293 -> 297 ;
298 [label="hours-per-week <= 39.5\ngini = 0.132\nsamples = 408\nvalue = [379, 29]"] ;
297 -> 298 ;
299 [label="gini = 0.0\nsamples = 2\nvalue = [2, 0]"] ;
298 -> 299 ;
300 [label="gini = 0.133\nsamples = 406\nvalue = [377, 29]"] ;
298 -> 300 ;
301 [label="gini = 0.148\nsamples = 410\nvalue = [377, 33]"] ;
297 -> 301 ;
302 [label="gini = 0.0\nsamples = 4\nvalue = [4, 0]"] ;
292 -> 302 ;
303 [label="gini = 0.0\nsamples = 1\nvalue = [0, 1]"] ;
291 -> 303 ;
304 [label="gini = 0.0\nsamples = 8\nvalue = [8, 0]"] ;
290 -> 304 ;
305 [label="gini = 0.0\nsamples = 14\nvalue = [14, 0]"] ;
289 -> 305 ;
306 [label="gini = 0.0\nsamples = 3\nvalue = [0, 3]"] ;
280 -> 306 ;
307 [label="gini = 0.0\nsamples = 22\nvalue = [22, 0]"] ;
279 -> 307 ;
308 [label="hours-per-week <= 34.5\ngini = 0.199\nsamples = 526\nvalue = [467, 59]"] ;
234 -> 308 ;
309 [label="hours-per-week <= 11.0\ngini = 0.061\nsamples = 63\nvalue = [61, 2]"] ;
308 -> 309 ;
310 [label="hours-per-week <= 9.0\ngini = 0.245\nsamples = 7\nvalue = [6, 1]"] ;
309 -> 310 ;
311 [label="gini = 0.0\nsamples = 3\nvalue = [3, 0]"] ;
310 -> 311 ;
312 [label="capital-gain <= 1662.5\ngini = 0.375\nsamples = 4\nvalue = [3, 1]"] ;
310 -> 312 ;
313 [label="gini = 0.444\nsamples = 3\nvalue = [2, 1]"] ;
312 -> 313 ;
314 [label="gini = 0.0\nsamples = 1\nvalue = [1, 0]"] ;
312 -> 314 ;
315 [label="hours-per-week <= 24.5\ngini = 0.035\nsamples = 56\nvalue = [55, 1]"] ;
309 -> 315 ;
316 [label="gini = 0.0\nsamples = 23\nvalue = [23, 0]"] ;
315 -> 316 ;
317 [label="hours-per-week <= 25.5\ngini = 0.059\nsamples = 33\nvalue = [32, 1]"] ;
315 -> 317 ;
318 [label="gini = 0.133\nsamples = 14\nvalue = [13, 1]"] ;
317 -> 318 ;
319 [label="gini = 0.0\nsamples = 19\nvalue = [19, 0]"] ;
317 -> 319 ;
320 [label="capital-loss <= 1446.5\ngini = 0.216\nsamples = 463\nvalue = [406, 57]"] ;
308 -> 320 ;
321 [label="hours-per-week <= 35.5\ngini = 0.211\nsamples = 458\nvalue = [403, 55]"] ;
320 -> 321 ;
322 [label="gini = 0.305\nsamples = 32\nvalue = [26, 6]"] ;
321 -> 322 ;
323 [label="hours-per-week <= 39.0\ngini = 0.204\nsamples = 426\nvalue = [377, 49]"] ;
321 -> 323 ;
324 [label="gini = 0.0\nsamples = 19\nvalue = [19, 0]"] ;
323 -> 324 ;
325 [label="capital-gain <= 4518.0\ngini = 0.212\nsamples = 407\nvalue = [358, 49]"] ;
323 -> 325 ;
326 [label="capital-gain <= 4030.0\ngini = 0.214\nsamples = 403\nvalue = [354, 49]"] ;
325 -> 326 ;
327 [label="capital-gain <= 915.5\ngini = 0.21\nsamples = 402\nvalue = [354, 48]"] ;
326 -> 327 ;
328 [label="capital-loss <= 569.0\ngini = 0.215\nsamples = 392\nvalue = [344, 48]"] ;
327 -> 328 ;
329 [label="gini = 0.216\nsamples = 389\nvalue = [341, 48]"] ;
328 -> 329 ;
330 [label="gini = 0.0\nsamples = 3\nvalue = [3, 0]"] ;
328 -> 330 ;
331 [label="gini = 0.0\nsamples = 10\nvalue = [10, 0]"] ;
327 -> 331 ;
332 [label="gini = 0.0\nsamples = 1\nvalue = [0, 1]"] ;
326 -> 332 ;
333 [label="gini = 0.0\nsamples = 4\nvalue = [4, 0]"] ;
325 -> 333 ;
334 [label="capital-loss <= 1537.5\ngini = 0.48\nsamples = 5\nvalue = [3, 2]"] ;
320 -> 334 ;
335 [label="gini = 0.0\nsamples = 2\nvalue = [0, 2]"] ;
334 -> 335 ;
336 [label="gini = 0.0\nsamples = 3\nvalue = [3, 0]"] ;
334 -> 336 ;
337 [label="age <= 27.5\ngini = 0.271\nsamples = 964\nvalue = [808, 156]"] ;
233 -> 337 ;
338 [label="hours-per-week <= 77.5\ngini = 0.223\nsamples = 446\nvalue = [389, 57]"] ;
337 -> 338 ;
339 [label="hours-per-week <= 45.5\ngini = 0.212\nsamples = 424\nvalue = [373, 51]"] ;
338 -> 339 ;
340 [label="hours-per-week <= 44.5\ngini = 0.265\nsamples = 127\nvalue = [107, 20]"] ;
339 -> 340 ;
341 [label="age <= 26.5\ngini = 0.191\nsamples = 28\nvalue = [25, 3]"] ;
340 -> 341 ;
342 [label="gini = 0.0\nsamples = 14\nvalue = [14, 0]"] ;
341 -> 342 ;
343 [label="hours-per-week <= 42.5\ngini = 0.337\nsamples = 14\nvalue = [11, 3]"] ;
341 -> 343 ;
344 [label="hours-per-week <= 41.5\ngini = 0.469\nsamples = 8\nvalue = [5, 3]"] ;
343 -> 344 ;
345 [label="gini = 0.0\nsamples = 1\nvalue = [1, 0]"] ;
344 -> 345 ;
346 [label="gini = 0.49\nsamples = 7\nvalue = [4, 3]"] ;
344 -> 346 ;
347 [label="gini = 0.0\nsamples = 6\nvalue = [6, 0]"] ;
343 -> 347 ;
348 [label="capital-gain <= 1290.0\ngini = 0.284\nsamples = 99\nvalue = [82, 17]"] ;
340 -> 348 ;
349 [label="capital-loss <= 752.0\ngini = 0.289\nsamples = 97\nvalue = [80, 17]"] ;
348 -> 349 ;
350 [label="age <= 26.5\ngini = 0.294\nsamples = 95\nvalue = [78, 17]"] ;
349 -> 350 ;
351 [label="gini = 0.314\nsamples = 41\nvalue = [33, 8]"] ;
350 -> 351 ;
352 [label="gini = 0.278\nsamples = 54\nvalue = [45, 9]"] ;
350 -> 352 ;
353 [label="gini = 0.0\nsamples = 2\nvalue = [2, 0]"] ;
349 -> 353 ;
354 [label="gini = 0.0\nsamples = 2\nvalue = [2, 0]"] ;
348 -> 354 ;
355 [label="hours-per-week <= 49.5\ngini = 0.187\nsamples = 297\nvalue = [266, 31]"] ;
339 -> 355 ;
356 [label="age <= 26.5\ngini = 0.056\nsamples = 35\nvalue = [34, 1]"] ;
355 -> 356 ;
357 [label="capital-gain <= 1298.5\ngini = 0.095\nsamples = 20\nvalue = [19, 1]"] ;
356 -> 357 ;
358 [label="gini = 0.105\nsamples = 18\nvalue = [17, 1]"] ;
357 -> 358 ;
359 [label="gini = 0.0\nsamples = 2\nvalue = [2, 0]"] ;
357 -> 359 ;
360 [label="gini = 0.0\nsamples = 15\nvalue = [15, 0]"] ;
356 -> 360 ;
361 [label="hours-per-week <= 66.5\ngini = 0.203\nsamples = 262\nvalue = [232, 30]"] ;
355 -> 361 ;
362 [label="hours-per-week <= 51.5\ngini = 0.212\nsamples = 241\nvalue = [212, 29]"] ;
361 -> 362 ;
363 [label="capital-gain <= 3005.0\ngini = 0.174\nsamples = 125\nvalue = [113, 12]"] ;
362 -> 363 ;
364 [label="capital-gain <= 1203.5\ngini = 0.165\nsamples = 121\nvalue = [110, 11]"] ;
363 -> 364 ;
365 [label="capital-loss <= 814.0\ngini = 0.169\nsamples = 118\nvalue = [107, 11]"] ;
364 -> 365 ;
366 [label="age <= 26.5\ngini = 0.172\nsamples = 116\nvalue = [105, 11]"] ;
365 -> 366 ;
367 [label="hours-per-week <= 50.5\ngini = 0.153\nsamples = 48\nvalue = [44, 4]"] ;
366 -> 367 ;
368 [label="gini = 0.156\nsamples = 47\nvalue = [43, 4]"] ;
367 -> 368 ;
369 [label="gini = 0.0\nsamples = 1\nvalue = [1, 0]"] ;
367 -> 369 ;
370 [label="gini = 0.185\nsamples = 68\nvalue = [61, 7]"] ;
366 -> 370 ;
371 [label="gini = 0.0\nsamples = 2\nvalue = [2, 0]"] ;
365 -> 371 ;
372 [label="gini = 0.0\nsamples = 3\nvalue = [3, 0]"] ;
364 -> 372 ;
373 [label="capital-gain <= 3583.5\ngini = 0.375\nsamples = 4\nvalue = [3, 1]"] ;
363 -> 373 ;
374 [label="gini = 0.0\nsamples = 1\nvalue = [0, 1]"] ;
373 -> 374 ;
375 [label="gini = 0.0\nsamples = 3\nvalue = [3, 0]"] ;
373 -> 375 ;
376 [label="capital-loss <= 742.5\ngini = 0.25\nsamples = 116\nvalue = [99, 17]"] ;
362 -> 376 ;
377 [label="hours-per-week <= 59.0\ngini = 0.24\nsamples = 115\nvalue = [99, 16]"] ;
376 -> 377 ;
378 [label="age <= 26.5\ngini = 0.31\nsamples = 47\nvalue = [38, 9]"] ;
377 -> 378 ;
379 [label="hours-per-week <= 57.0\ngini = 0.436\nsamples = 28\nvalue = [19, 9]"] ;
378 -> 379 ;
380 [label="hours-per-week <= 52.5\ngini = 0.393\nsamples = 26\nvalue = [19, 7]"] ;
379 -> 380 ;
381 [label="gini = 0.5\nsamples = 6\nvalue = [3, 3]"] ;
380 -> 381 ;
382 [label="hours-per-week <= 54.5\ngini = 0.32\nsamples = 20\nvalue = [16, 4]"] ;
380 -> 382 ;
383 [label="gini = 0.0\nsamples = 2\nvalue = [2, 0]"] ;
382 -> 383 ;
384 [label="hours-per-week <= 55.5\ngini = 0.346\nsamples = 18\nvalue = [14, 4]"] ;
382 -> 384 ;
385 [label="gini = 0.36\nsamples = 17\nvalue = [13, 4]"] ;
384 -> 385 ;
386 [label="gini = 0.0\nsamples = 1\nvalue = [1, 0]"] ;
384 -> 386 ;
387 [label="gini = 0.0\nsamples = 2\nvalue = [0, 2]"] ;
379 -> 387 ;
388 [label="gini = 0.0\nsamples = 19\nvalue = [19, 0]"] ;
378 -> 388 ;
389 [label="age <= 26.5\ngini = 0.185\nsamples = 68\nvalue = [61, 7]"] ;
377 -> 389 ;
390 [label="hours-per-week <= 62.5\ngini = 0.062\nsamples = 31\nvalue = [30, 1]"] ;
389 -> 390 ;
391 [label="gini = 0.0\nsamples = 21\nvalue = [21, 0]"] ;
390 -> 391 ;
392 [label="gini = 0.18\nsamples = 10\nvalue = [9, 1]"] ;
390 -> 392 ;
393 [label="hours-per-week <= 64.5\ngini = 0.272\nsamples = 37\nvalue = [31, 6]"] ;
389 -> 393 ;
394 [label="hours-per-week <= 61.0\ngini = 0.225\nsamples = 31\nvalue = [27, 4]"] ;
393 -> 394 ;
395 [label="gini = 0.238\nsamples = 29\nvalue = [25, 4]"] ;
394 -> 395 ;
396 [label="gini = 0.0\nsamples = 2\nvalue = [2, 0]"] ;
394 -> 396 ;
397 [label="gini = 0.444\nsamples = 6\nvalue = [4, 2]"] ;
393 -> 397 ;
398 [label="gini = 0.0\nsamples = 1\nvalue = [0, 1]"] ;
376 -> 398 ;
399 [label="age <= 26.5\ngini = 0.091\nsamples = 21\nvalue = [20, 1]"] ;
361 -> 399 ;
400 [label="hours-per-week <= 71.0\ngini = 0.198\nsamples = 9\nvalue = [8, 1]"] ;
399 -> 400 ;
401 [label="gini = 0.32\nsamples = 5\nvalue = [4, 1]"] ;
400 -> 401 ;
402 [label="gini = 0.0\nsamples = 4\nvalue = [4, 0]"] ;
400 -> 402 ;
403 [label="gini = 0.0\nsamples = 12\nvalue = [12, 0]"] ;
399 -> 403 ;
404 [label="hours-per-week <= 84.0\ngini = 0.397\nsamples = 22\nvalue = [16, 6]"] ;
338 -> 404 ;
405 [label="hours-per-week <= 79.0\ngini = 0.48\nsamples = 15\nvalue = [9, 6]"] ;
404 -> 405 ;
406 [label="age <= 26.5\ngini = 0.444\nsamples = 3\nvalue = [2, 1]"] ;
405 -> 406 ;
407 [label="gini = 0.5\nsamples = 2\nvalue = [1, 1]"] ;
406 -> 407 ;
408 [label="gini = 0.0\nsamples = 1\nvalue = [1, 0]"] ;
406 -> 408 ;
409 [label="age <= 26.5\ngini = 0.486\nsamples = 12\nvalue = [7, 5]"] ;
405 -> 409 ;
410 [label="gini = 0.48\nsamples = 5\nvalue = [3, 2]"] ;
409 -> 410 ;
411 [label="gini = 0.49\nsamples = 7\nvalue = [4, 3]"] ;
409 -> 411 ;
412 [label="gini = 0.0\nsamples = 7\nvalue = [7, 0]"] ;
404 -> 412 ;
413 [label="capital-gain <= 4243.5\ngini = 0.309\nsamples = 518\nvalue = [419, 99]"] ;
337 -> 413 ;
414 [label="hours-per-week <= 71.0\ngini = 0.306\nsamples = 514\nvalue = [417, 97]"] ;
413 -> 414 ;
415 [label="hours-per-week <= 49.0\ngini = 0.315\nsamples = 491\nvalue = [395, 96]"] ;
414 -> 415 ;
416 [label="hours-per-week <= 47.0\ngini = 0.257\nsamples = 178\nvalue = [151, 27]"] ;
415 -> 416 ;
417 [label="hours-per-week <= 41.5\ngini = 0.29\nsamples = 148\nvalue = [122, 26]"] ;
416 -> 417 ;
418 [label="gini = 0.5\nsamples = 2\nvalue = [1, 1]"] ;
417 -> 418 ;
419 [label="hours-per-week <= 45.5\ngini = 0.284\nsamples = 146\nvalue = [121, 25]"] ;
417 -> 419 ;
420 [label="hours-per-week <= 43.5\ngini = 0.275\nsamples = 140\nvalue = [117, 23]"] ;
419 -> 420 ;
421 [label="hours-per-week <= 42.5\ngini = 0.191\nsamples = 28\nvalue = [25, 3]"] ;
420 -> 421 ;
422 [label="capital-loss <= 834.5\ngini = 0.278\nsamples = 18\nvalue = [15, 3]"] ;
421 -> 422 ;
423 [label="age <= 28.5\ngini = 0.291\nsamples = 17\nvalue = [14, 3]"] ;
422 -> 423 ;
424 [label="gini = 0.375\nsamples = 4\nvalue = [3, 1]"] ;
423 -> 424 ;
425 [label="gini = 0.26\nsamples = 13\nvalue = [11, 2]"] ;
423 -> 425 ;
426 [label="gini = 0.0\nsamples = 1\nvalue = [1, 0]"] ;
422 -> 426 ;
427 [label="gini = 0.0\nsamples = 10\nvalue = [10, 0]"] ;
421 -> 427 ;
428 [label="age <= 28.5\ngini = 0.293\nsamples = 112\nvalue = [92, 20]"] ;
420 -> 428 ;
429 [label="capital-gain <= 2032.0\ngini = 0.341\nsamples = 55\nvalue = [43, 12]"] ;
428 -> 429 ;
430 [label="gini = 0.346\nsamples = 54\nvalue = [42, 12]"] ;
429 -> 430 ;
431 [label="gini = 0.0\nsamples = 1\nvalue = [1, 0]"] ;
429 -> 431 ;
432 [label="hours-per-week <= 44.5\ngini = 0.241\nsamples = 57\nvalue = [49, 8]"] ;
428 -> 432 ;
433 [label="gini = 0.444\nsamples = 3\nvalue = [2, 1]"] ;
432 -> 433 ;
434 [label="capital-gain <= 2638.5\ngini = 0.226\nsamples = 54\nvalue = [47, 7]"] ;
432 -> 434 ;
435 [label="capital-gain <= 1087.0\ngini = 0.208\nsamples = 51\nvalue = [45, 6]"] ;
434 -> 435 ;
436 [label="capital-loss <= 795.0\ngini = 0.211\nsamples = 50\nvalue = [44, 6]"] ;
435 -> 436 ;
437 [label="gini = 0.215\nsamples = 49\nvalue = [43, 6]"] ;
436 -> 437 ;
438 [label="gini = 0.0\nsamples = 1\nvalue = [1, 0]"] ;
436 -> 438 ;
439 [label="gini = 0.0\nsamples = 1\nvalue = [1, 0]"] ;
435 -> 439 ;
440 [label="capital-gain <= 3214.0\ngini = 0.444\nsamples = 3\nvalue = [2, 1]"] ;
434 -> 440 ;
441 [label="gini = 0.0\nsamples = 1\nvalue = [0, 1]"] ;
440 -> 441 ;
442 [label="gini = 0.0\nsamples = 2\nvalue = [2, 0]"] ;
440 -> 442 ;
443 [label="age <= 28.5\ngini = 0.444\nsamples = 6\nvalue = [4, 2]"] ;
419 -> 443 ;
444 [label="gini = 0.32\nsamples = 5\nvalue = [4, 1]"] ;
443 -> 444 ;
445 [label="gini = 0.0\nsamples = 1\nvalue = [0, 1]"] ;
443 -> 445 ;
446 [label="age <= 28.5\ngini = 0.064\nsamples = 30\nvalue = [29, 1]"] ;
416 -> 446 ;
447 [label="capital-gain <= 1101.0\ngini = 0.133\nsamples = 14\nvalue = [13, 1]"] ;
446 -> 447 ;
448 [label="gini = 0.142\nsamples = 13\nvalue = [12, 1]"] ;
447 -> 448 ;
449 [label="gini = 0.0\nsamples = 1\nvalue = [1, 0]"] ;
447 -> 449 ;
450 [label="gini = 0.0\nsamples = 16\nvalue = [16, 0]"] ;
446 -> 450 ;
451 [label="hours-per-week <= 50.5\ngini = 0.344\nsamples = 313\nvalue = [244, 69]"] ;
415 -> 451 ;
452 [label="capital-gain <= 297.0\ngini = 0.392\nsamples = 157\nvalue = [115, 42]"] ;
451 -> 452 ;
453 [label="capital-loss <= 782.0\ngini = 0.402\nsamples = 151\nvalue = [109, 42]"] ;
452 -> 453 ;
454 [label="age <= 28.5\ngini = 0.396\nsamples = 147\nvalue = [107, 40]"] ;
453 -> 454 ;
455 [label="gini = 0.365\nsamples = 79\nvalue = [60, 19]"] ;
454 -> 455 ;
456 [label="gini = 0.427\nsamples = 68\nvalue = [47, 21]"] ;
454 -> 456 ;
457 [label="capital-loss <= 1577.0\ngini = 0.5\nsamples = 4\nvalue = [2, 2]"] ;
453 -> 457 ;
458 [label="gini = 0.0\nsamples = 2\nvalue = [0, 2]"] ;
457 -> 458 ;
459 [label="gini = 0.0\nsamples = 2\nvalue = [2, 0]"] ;
457 -> 459 ;
460 [label="gini = 0.0\nsamples = 6\nvalue = [6, 0]"] ;
452 -> 460 ;
461 [label="hours-per-week <= 63.5\ngini = 0.286\nsamples = 156\nvalue = [129, 27]"] ;
451 -> 461 ;
462 [label="capital-loss <= 742.5\ngini = 0.254\nsamples = 127\nvalue = [108, 19]"] ;
461 -> 462 ;
463 [label="hours-per-week <= 59.0\ngini = 0.24\nsamples = 122\nvalue = [105, 17]"] ;
462 -> 463 ;
464 [label="hours-per-week <= 55.5\ngini = 0.194\nsamples = 55\nvalue = [49, 6]"] ;
463 -> 464 ;
465 [label="age <= 28.5\ngini = 0.211\nsamples = 50\nvalue = [44, 6]"] ;
464 -> 465 ;
466 [label="hours-per-week <= 54.5\ngini = 0.153\nsamples = 24\nvalue = [22, 2]"] ;
465 -> 466 ;
467 [label="gini = 0.0\nsamples = 6\nvalue = [6, 0]"] ;
466 -> 467 ;
468 [label="capital-gain <= 1087.0\ngini = 0.198\nsamples = 18\nvalue = [16, 2]"] ;
466 -> 468 ;
469 [label="gini = 0.208\nsamples = 17\nvalue = [15, 2]"] ;
468 -> 469 ;
470 [label="gini = 0.0\nsamples = 1\nvalue = [1, 0]"] ;
468 -> 470 ;
471 [label="hours-per-week <= 53.0\ngini = 0.26\nsamples = 26\nvalue = [22, 4]"] ;
465 -> 471 ;
472 [label="gini = 0.375\nsamples = 4\nvalue = [3, 1]"] ;
471 -> 472 ;
473 [label="hours-per-week <= 54.5\ngini = 0.236\nsamples = 22\nvalue = [19, 3]"] ;
471 -> 473 ;
474 [label="gini = 0.0\nsamples = 1\nvalue = [1, 0]"] ;
473 -> 474 ;
475 [label="gini = 0.245\nsamples = 21\nvalue = [18, 3]"] ;
473 -> 475 ;
476 [label="gini = 0.0\nsamples = 5\nvalue = [5, 0]"] ;
464 -> 476 ;
477 [label="age <= 28.5\ngini = 0.274\nsamples = 67\nvalue = [56, 11]"] ;
463 -> 477 ;
478 [label="hours-per-week <= 61.5\ngini = 0.332\nsamples = 38\nvalue = [30, 8]"] ;
477 -> 478 ;
479 [label="capital-gain <= 2050.5\ngini = 0.346\nsamples = 36\nvalue = [28, 8]"] ;
478 -> 479 ;
480 [label="gini = 0.353\nsamples = 35\nvalue = [27, 8]"] ;
479 -> 480 ;
481 [label="gini = 0.0\nsamples = 1\nvalue = [1, 0]"] ;
479 -> 481 ;
482 [label="gini = 0.0\nsamples = 2\nvalue = [2, 0]"] ;
478 -> 482 ;
483 [label="gini = 0.185\nsamples = 29\nvalue = [26, 3]"] ;
477 -> 483 ;
484 [label="age <= 28.5\ngini = 0.48\nsamples = 5\nvalue = [3, 2]"] ;
462 -> 484 ;
485 [label="gini = 0.0\nsamples = 3\nvalue = [3, 0]"] ;
484 -> 485 ;
486 [label="gini = 0.0\nsamples = 2\nvalue = [0, 2]"] ;
484 -> 486 ;
487 [label="hours-per-week <= 67.5\ngini = 0.4\nsamples = 29\nvalue = [21, 8]"] ;
461 -> 487 ;
488 [label="age <= 28.5\ngini = 0.459\nsamples = 14\nvalue = [9, 5]"] ;
487 -> 488 ;
489 [label="gini = 0.5\nsamples = 6\nvalue = [3, 3]"] ;
488 -> 489 ;
490 [label="hours-per-week <= 64.5\ngini = 0.375\nsamples = 8\nvalue = [6, 2]"] ;
488 -> 490 ;
491 [label="capital-loss <= 795.0\ngini = 0.5\nsamples = 2\nvalue = [1, 1]"] ;
490 -> 491 ;
492 [label="gini = 0.0\nsamples = 1\nvalue = [0, 1]"] ;
491 -> 492 ;
493 [label="gini = 0.0\nsamples = 1\nvalue = [1, 0]"] ;
491 -> 493 ;
494 [label="gini = 0.278\nsamples = 6\nvalue = [5, 1]"] ;
490 -> 494 ;
495 [label="capital-loss <= 870.0\ngini = 0.32\nsamples = 15\nvalue = [12, 3]"] ;
487 -> 495 ;
496 [label="capital-gain <= 1705.5\ngini = 0.337\nsamples = 14\nvalue = [11, 3]"] ;
495 -> 496 ;
497 [label="age <= 28.5\ngini = 0.355\nsamples = 13\nvalue = [10, 3]"] ;
496 -> 497 ;
498 [label="gini = 0.32\nsamples = 10\nvalue = [8, 2]"] ;
497 -> 498 ;
499 [label="gini = 0.444\nsamples = 3\nvalue = [2, 1]"] ;
497 -> 499 ;
500 [label="gini = 0.0\nsamples = 1\nvalue = [1, 0]"] ;
496 -> 500 ;
501 [label="gini = 0.0\nsamples = 1\nvalue = [1, 0]"] ;
495 -> 501 ;
502 [label="age <= 28.5\ngini = 0.083\nsamples = 23\nvalue = [22, 1]"] ;
414 -> 502 ;
503 [label="hours-per-week <= 82.0\ngini = 0.18\nsamples = 10\nvalue = [9, 1]"] ;
502 -> 503 ;
504 [label="hours-per-week <= 78.5\ngini = 0.32\nsamples = 5\nvalue = [4, 1]"] ;
503 -> 504 ;
505 [label="gini = 0.0\nsamples = 1\nvalue = [1, 0]"] ;
504 -> 505 ;
506 [label="gini = 0.375\nsamples = 4\nvalue = [3, 1]"] ;
504 -> 506 ;
507 [label="gini = 0.0\nsamples = 5\nvalue = [5, 0]"] ;
503 -> 507 ;
508 [label="gini = 0.0\nsamples = 13\nvalue = [13, 0]"] ;
502 -> 508 ;
509 [label="age <= 28.5\ngini = 0.5\nsamples = 4\nvalue = [2, 2]"] ;
413 -> 509 ;
510 [label="gini = 0.0\nsamples = 2\nvalue = [2, 0]"] ;
509 -> 510 ;
511 [label="gini = 0.0\nsamples = 2\nvalue = [0, 2]"] ;
509 -> 511 ;
512 [label="capital-loss <= 1978.5\ngini = 0.49\nsamples = 65\nvalue = [37, 28]"] ;
232 -> 512 ;
513 [label="capital-loss <= 1881.5\ngini = 0.46\nsamples = 39\nvalue = [14, 25]"] ;
512 -> 513 ;
514 [label="capital-loss <= 1862.0\ngini = 0.473\nsamples = 13\nvalue = [8, 5]"] ;
513 -> 514 ;
515 [label="gini = 0.0\nsamples = 5\nvalue = [0, 5]"] ;
514 -> 515 ;
516 [label="gini = 0.0\nsamples = 8\nvalue = [8, 0]"] ;
514 -> 516 ;
517 [label="capital-loss <= 1894.5\ngini = 0.355\nsamples = 26\nvalue = [6, 20]"] ;
513 -> 517 ;
518 [label="gini = 0.0\nsamples = 12\nvalue = [0, 12]"] ;
517 -> 518 ;
519 [label="capital-loss <= 1975.5\ngini = 0.49\nsamples = 14\nvalue = [6, 8]"] ;
517 -> 519 ;
520 [label="capital-loss <= 1938.0\ngini = 0.444\nsamples = 9\nvalue = [6, 3]"] ;
519 -> 520 ;
521 [label="hours-per-week <= 42.5\ngini = 0.48\nsamples = 5\nvalue = [2, 3]"] ;
520 -> 521 ;
522 [label="gini = 0.0\nsamples = 1\nvalue = [0, 1]"] ;
521 -> 522 ;
523 [label="age <= 27.5\ngini = 0.5\nsamples = 4\nvalue = [2, 2]"] ;
521 -> 523 ;
524 [label="gini = 0.0\nsamples = 1\nvalue = [1, 0]"] ;
523 -> 524 ;
525 [label="hours-per-week <= 52.5\ngini = 0.444\nsamples = 3\nvalue = [1, 2]"] ;
523 -> 525 ;
526 [label="gini = 0.0\nsamples = 1\nvalue = [0, 1]"] ;
525 -> 526 ;
527 [label="gini = 0.5\nsamples = 2\nvalue = [1, 1]"] ;
525 -> 527 ;
528 [label="gini = 0.0\nsamples = 4\nvalue = [4, 0]"] ;
520 -> 528 ;
529 [label="gini = 0.0\nsamples = 5\nvalue = [0, 5]"] ;
519 -> 529 ;
530 [label="hours-per-week <= 43.5\ngini = 0.204\nsamples = 26\nvalue = [23, 3]"] ;
512 -> 530 ;
531 [label="capital-loss <= 2205.0\ngini = 0.091\nsamples = 21\nvalue = [20, 1]"] ;
530 -> 531 ;
532 [label="gini = 0.0\nsamples = 15\nvalue = [15, 0]"] ;
531 -> 532 ;
533 [label="capital-loss <= 2234.5\ngini = 0.278\nsamples = 6\nvalue = [5, 1]"] ;
531 -> 533 ;
534 [label="gini = 0.0\nsamples = 1\nvalue = [0, 1]"] ;
533 -> 534 ;
535 [label="gini = 0.0\nsamples = 5\nvalue = [5, 0]"] ;
533 -> 535 ;
536 [label="hours-per-week <= 47.5\ngini = 0.48\nsamples = 5\nvalue = [3, 2]"] ;
530 -> 536 ;
537 [label="capital-loss <= 2317.5\ngini = 0.444\nsamples = 3\nvalue = [1, 2]"] ;
536 -> 537 ;
538 [label="gini = 0.0\nsamples = 2\nvalue = [0, 2]"] ;
537 -> 538 ;
539 [label="gini = 0.0\nsamples = 1\nvalue = [1, 0]"] ;
537 -> 539 ;
540 [label="gini = 0.0\nsamples = 2\nvalue = [2, 0]"] ;
536 -> 540 ;
541 [label="capital-loss <= 1820.5\ngini = 0.4\nsamples = 21370\nvalue = [15452, 5918]"] ;
1 -> 541 ;
542 [label="hours-per-week <= 41.5\ngini = 0.381\nsamples = 20481\nvalue = [15239, 5242]"] ;
541 -> 542 ;
543 [label="hours-per-week <= 34.5\ngini = 0.317\nsamples = 13984\nvalue = [11227, 2757]"] ;
542 -> 543 ;
544 [label="capital-gain <= 4225.0\ngini = 0.181\nsamples = 2597\nvalue = [2336, 261]"] ;
543 -> 544 ;
545 [label="age <= 62.5\ngini = 0.178\nsamples = 2576\nvalue = [2322, 254]"] ;
544 -> 545 ;
546 [label="hours-per-week <= 2.5\ngini = 0.198\nsamples = 1783\nvalue = [1584, 199]"] ;
545 -> 546 ;
547 [label="age <= 57.5\ngini = 0.49\nsamples = 14\nvalue = [8, 6]"] ;
546 -> 547 ;
548 [label="hours-per-week <= 1.5\ngini = 0.346\nsamples = 9\nvalue = [7, 2]"] ;
547 -> 548 ;
549 [label="gini = 0.0\nsamples = 2\nvalue = [2, 0]"] ;
548 -> 549 ;
550 [label="age <= 43.5\ngini = 0.408\nsamples = 7\nvalue = [5, 2]"] ;
548 -> 550 ;
551 [label="age <= 34.0\ngini = 0.32\nsamples = 5\nvalue = [4, 1]"] ;
550 -> 551 ;
552 [label="gini = 0.444\nsamples = 3\nvalue = [2, 1]"] ;
551 -> 552 ;
553 [label="gini = 0.0\nsamples = 2\nvalue = [2, 0]"] ;
551 -> 553 ;
554 [label="age <= 48.5\ngini = 0.5\nsamples = 2\nvalue = [1, 1]"] ;
550 -> 554 ;
555 [label="gini = 0.0\nsamples = 1\nvalue = [0, 1]"] ;
554 -> 555 ;
556 [label="gini = 0.0\nsamples = 1\nvalue = [1, 0]"] ;
554 -> 556 ;
557 [label="hours-per-week <= 1.5\ngini = 0.32\nsamples = 5\nvalue = [1, 4]"] ;
547 -> 557 ;
558 [label="age <= 60.0\ngini = 0.5\nsamples = 2\nvalue = [1, 1]"] ;
557 -> 558 ;
559 [label="gini = 0.0\nsamples = 1\nvalue = [0, 1]"] ;
558 -> 559 ;
560 [label="gini = 0.0\nsamples = 1\nvalue = [1, 0]"] ;
558 -> 560 ;
561 [label="gini = 0.0\nsamples = 3\nvalue = [0, 3]"] ;
557 -> 561 ;
562 [label="age <= 33.5\ngini = 0.194\nsamples = 1769\nvalue = [1576, 193]"] ;
546 -> 562 ;
563 [label="hours-per-week <= 32.5\ngini = 0.132\nsamples = 296\nvalue = [275, 21]"] ;
562 -> 563 ;
564 [label="hours-per-week <= 25.5\ngini = 0.122\nsamples = 291\nvalue = [272, 19]"] ;
563 -> 564 ;
565 [label="hours-per-week <= 24.5\ngini = 0.157\nsamples = 186\nvalue = [170, 16]"] ;
564 -> 565 ;
566 [label="age <= 32.5\ngini = 0.13\nsamples = 143\nvalue = [133, 10]"] ;
565 -> 566 ;
567 [label="hours-per-week <= 9.0\ngini = 0.168\nsamples = 108\nvalue = [98, 10]"] ;
566 -> 567 ;
568 [label="age <= 31.5\ngini = 0.298\nsamples = 11\nvalue = [9, 2]"] ;
567 -> 568 ;
569 [label="hours-per-week <= 5.5\ngini = 0.219\nsamples = 8\nvalue = [7, 1]"] ;
568 -> 569 ;
570 [label="hours-per-week <= 4.5\ngini = 0.444\nsamples = 3\nvalue = [2, 1]"] ;
569 -> 570 ;
571 [label="gini = 0.0\nsamples = 2\nvalue = [2, 0]"] ;
570 -> 571 ;
572 [label="gini = 0.0\nsamples = 1\nvalue = [0, 1]"] ;
570 -> 572 ;
573 [label="gini = 0.0\nsamples = 5\nvalue = [5, 0]"] ;
569 -> 573 ;
574 [label="hours-per-week <= 6.5\ngini = 0.444\nsamples = 3\nvalue = [2, 1]"] ;
568 -> 574 ;
575 [label="gini = 0.0\nsamples = 2\nvalue = [2, 0]"] ;
574 -> 575 ;
576 [label="gini = 0.0\nsamples = 1\nvalue = [0, 1]"] ;
574 -> 576 ;
577 [label="hours-per-week <= 14.5\ngini = 0.151\nsamples = 97\nvalue = [89, 8]"] ;
567 -> 577 ;
578 [label="gini = 0.0\nsamples = 15\nvalue = [15, 0]"] ;
577 -> 578 ;
579 [label="age <= 30.5\ngini = 0.176\nsamples = 82\nvalue = [74, 8]"] ;
577 -> 579 ;
580 [label="hours-per-week <= 16.5\ngini = 0.219\nsamples = 32\nvalue = [28, 4]"] ;
579 -> 580 ;
581 [label="hours-per-week <= 15.5\ngini = 0.444\nsamples = 6\nvalue = [4, 2]"] ;
580 -> 581 ;
582 [label="gini = 0.375\nsamples = 4\nvalue = [3, 1]"] ;
581 -> 582 ;
583 [label="gini = 0.5\nsamples = 2\nvalue = [1, 1]"] ;
581 -> 583 ;
584 [label="hours-per-week <= 22.0\ngini = 0.142\nsamples = 26\nvalue = [24, 2]"] ;
580 -> 584 ;
585 [label="hours-per-week <= 19.5\ngini = 0.172\nsamples = 21\nvalue = [19, 2]"] ;
584 -> 585 ;
586 [label="gini = 0.0\nsamples = 4\nvalue = [4, 0]"] ;
585 -> 586 ;
587 [label="gini = 0.208\nsamples = 17\nvalue = [15, 2]"] ;
585 -> 587 ;
588 [label="gini = 0.0\nsamples = 5\nvalue = [5, 0]"] ;
584 -> 588 ;
589 [label="hours-per-week <= 19.5\ngini = 0.147\nsamples = 50\nvalue = [46, 4]"] ;
579 -> 589 ;
590 [label="gini = 0.0\nsamples = 13\nvalue = [13, 0]"] ;
589 -> 590 ;
591 [label="age <= 31.5\ngini = 0.193\nsamples = 37\nvalue = [33, 4]"] ;
589 -> 591 ;
592 [label="hours-per-week <= 20.5\ngini = 0.095\nsamples = 20\nvalue = [19, 1]"] ;
591 -> 592 ;
593 [label="capital-loss <= 870.0\ngini = 0.124\nsamples = 15\nvalue = [14, 1]"] ;
592 -> 593 ;
594 [label="gini = 0.133\nsamples = 14\nvalue = [13, 1]"] ;
593 -> 594 ;
595 [label="gini = 0.0\nsamples = 1\nvalue = [1, 0]"] ;
593 -> 595 ;
596 [label="gini = 0.0\nsamples = 5\nvalue = [5, 0]"] ;
592 -> 596 ;
597 [label="hours-per-week <= 23.5\ngini = 0.291\nsamples = 17\nvalue = [14, 3]"] ;
591 -> 597 ;
598 [label="hours-per-week <= 21.0\ngini = 0.231\nsamples = 15\nvalue = [13, 2]"] ;
597 -> 598 ;
599 [label="capital-loss <= 801.0\ngini = 0.298\nsamples = 11\nvalue = [9, 2]"] ;
598 -> 599 ;
600 [label="gini = 0.32\nsamples = 10\nvalue = [8, 2]"] ;
599 -> 600 ;
601 [label="gini = 0.0\nsamples = 1\nvalue = [1, 0]"] ;
599 -> 601 ;
602 [label="gini = 0.0\nsamples = 4\nvalue = [4, 0]"] ;
598 -> 602 ;
603 [label="gini = 0.5\nsamples = 2\nvalue = [1, 1]"] ;
597 -> 603 ;
604 [label="gini = 0.0\nsamples = 35\nvalue = [35, 0]"] ;
566 -> 604 ;
605 [label="age <= 32.5\ngini = 0.24\nsamples = 43\nvalue = [37, 6]"] ;
565 -> 605 ;
606 [label="age <= 31.5\ngini = 0.202\nsamples = 35\nvalue = [31, 4]"] ;
605 -> 606 ;
607 [label="capital-loss <= 859.5\ngini = 0.213\nsamples = 33\nvalue = [29, 4]"] ;
606 -> 607 ;
608 [label="age <= 30.5\ngini = 0.219\nsamples = 32\nvalue = [28, 4]"] ;
607 -> 608 ;
609 [label="gini = 0.245\nsamples = 14\nvalue = [12, 2]"] ;
608 -> 609 ;
610 [label="gini = 0.198\nsamples = 18\nvalue = [16, 2]"] ;
608 -> 610 ;
611 [label="gini = 0.0\nsamples = 1\nvalue = [1, 0]"] ;
607 -> 611 ;
612 [label="gini = 0.0\nsamples = 2\nvalue = [2, 0]"] ;
606 -> 612 ;
613 [label="capital-loss <= 870.0\ngini = 0.375\nsamples = 8\nvalue = [6, 2]"] ;
605 -> 613 ;
614 [label="gini = 0.408\nsamples = 7\nvalue = [5, 2]"] ;
613 -> 614 ;
615 [label="gini = 0.0\nsamples = 1\nvalue = [1, 0]"] ;
613 -> 615 ;
616 [label="hours-per-week <= 31.0\ngini = 0.056\nsamples = 105\nvalue = [102, 3]"] ;
564 -> 616 ;
617 [label="age <= 31.5\ngini = 0.024\nsamples = 82\nvalue = [81, 1]"] ;
616 -> 617 ;
618 [label="age <= 30.5\ngini = 0.042\nsamples = 47\nvalue = [46, 1]"] ;
617 -> 618 ;
619 [label="gini = 0.0\nsamples = 27\nvalue = [27, 0]"] ;
618 -> 619 ;
620 [label="hours-per-week <= 29.0\ngini = 0.095\nsamples = 20\nvalue = [19, 1]"] ;
618 -> 620 ;
621 [label="gini = 0.0\nsamples = 2\nvalue = [2, 0]"] ;
620 -> 621 ;
622 [label="capital-gain <= 2032.0\ngini = 0.105\nsamples = 18\nvalue = [17, 1]"] ;
620 -> 622 ;
623 [label="capital-loss <= 797.0\ngini = 0.111\nsamples = 17\nvalue = [16, 1]"] ;
622 -> 623 ;
624 [label="gini = 0.117\nsamples = 16\nvalue = [15, 1]"] ;
623 -> 624 ;
625 [label="gini = 0.0\nsamples = 1\nvalue = [1, 0]"] ;
623 -> 625 ;
626 [label="gini = 0.0\nsamples = 1\nvalue = [1, 0]"] ;
622 -> 626 ;
627 [label="gini = 0.0\nsamples = 35\nvalue = [35, 0]"] ;
617 -> 627 ;
628 [label="age <= 31.5\ngini = 0.159\nsamples = 23\nvalue = [21, 2]"] ;
616 -> 628 ;
629 [label="gini = 0.0\nsamples = 9\nvalue = [9, 0]"] ;
628 -> 629 ;
630 [label="age <= 32.5\ngini = 0.245\nsamples = 14\nvalue = [12, 2]"] ;
628 -> 630 ;
631 [label="gini = 0.32\nsamples = 5\nvalue = [4, 1]"] ;
630 -> 631 ;
632 [label="gini = 0.198\nsamples = 9\nvalue = [8, 1]"] ;
630 -> 632 ;
633 [label="hours-per-week <= 33.5\ngini = 0.48\nsamples = 5\nvalue = [3, 2]"] ;
563 -> 633 ;
634 [label="age <= 31.5\ngini = 0.444\nsamples = 3\nvalue = [1, 2]"] ;
633 -> 634 ;
635 [label="gini = 0.0\nsamples = 1\nvalue = [0, 1]"] ;
634 -> 635 ;
636 [label="gini = 0.5\nsamples = 2\nvalue = [1, 1]"] ;
634 -> 636 ;
637 [label="gini = 0.0\nsamples = 2\nvalue = [2, 0]"] ;
633 -> 637 ;
638 [label="hours-per-week <= 24.5\ngini = 0.206\nsamples = 1473\nvalue = [1301, 172]"] ;
562 -> 638 ;
639 [label="capital-gain <= 297.0\ngini = 0.233\nsamples = 712\nvalue = [616, 96]"] ;
638 -> 639 ;
640 [label="hours-per-week <= 15.5\ngini = 0.24\nsamples = 690\nvalue = [594, 96]"] ;
639 -> 640 ;
641 [label="hours-per-week <= 14.5\ngini = 0.202\nsamples = 272\nvalue = [241, 31]"] ;
640 -> 641 ;
642 [label="hours-per-week <= 12.5\ngini = 0.225\nsamples = 194\nvalue = [169, 25]"] ;
641 -> 642 ;
643 [label="age <= 61.5\ngini = 0.21\nsamples = 185\nvalue = [163, 22]"] ;
642 -> 643 ;
644 [label="age <= 59.5\ngini = 0.22\nsamples = 175\nvalue = [153, 22]"] ;
643 -> 644 ;
645 [label="age <= 39.5\ngini = 0.204\nsamples = 156\nvalue = [138, 18]"] ;
644 -> 645 ;
646 [label="capital-loss <= 782.0\ngini = 0.283\nsamples = 41\nvalue = [34, 7]"] ;
645 -> 646 ;
647 [label="hours-per-week <= 7.0\ngini = 0.26\nsamples = 39\nvalue = [33, 6]"] ;
646 -> 647 ;
648 [label="age <= 35.5\ngini = 0.375\nsamples = 12\nvalue = [9, 3]"] ;
647 -> 648 ;
649 [label="gini = 0.0\nsamples = 3\nvalue = [3, 0]"] ;
648 -> 649 ;
650 [label="hours-per-week <= 4.5\ngini = 0.444\nsamples = 9\nvalue = [6, 3]"] ;
648 -> 650 ;
651 [label="hours-per-week <= 3.5\ngini = 0.32\nsamples = 5\nvalue = [4, 1]"] ;
650 -> 651 ;
652 [label="gini = 0.0\nsamples = 1\nvalue = [1, 0]"] ;
651 -> 652 ;
653 [label="age <= 37.5\ngini = 0.375\nsamples = 4\nvalue = [3, 1]"] ;
651 -> 653 ;
654 [label="gini = 0.444\nsamples = 3\nvalue = [2, 1]"] ;
653 -> 654 ;
655 [label="gini = 0.0\nsamples = 1\nvalue = [1, 0]"] ;
653 -> 655 ;
656 [label="hours-per-week <= 5.5\ngini = 0.5\nsamples = 4\nvalue = [2, 2]"] ;
650 -> 656 ;
657 [label="gini = 0.0\nsamples = 1\nvalue = [0, 1]"] ;
656 -> 657 ;
658 [label="age <= 38.0\ngini = 0.444\nsamples = 3\nvalue = [2, 1]"] ;
656 -> 658 ;
659 [label="gini = 0.0\nsamples = 2\nvalue = [2, 0]"] ;
658 -> 659 ;
660 [label="gini = 0.0\nsamples = 1\nvalue = [0, 1]"] ;
658 -> 660 ;
661 [label="age <= 36.5\ngini = 0.198\nsamples = 27\nvalue = [24, 3]"] ;
647 -> 661 ;
662 [label="hours-per-week <= 11.0\ngini = 0.355\nsamples = 13\nvalue = [10, 3]"] ;
661 -> 662 ;
663 [label="age <= 34.5\ngini = 0.198\nsamples = 9\nvalue = [8, 1]"] ;
662 -> 663 ;
664 [label="hours-per-week <= 9.0\ngini = 0.278\nsamples = 6\nvalue = [5, 1]"] ;
663 -> 664 ;
665 [label="gini = 0.0\nsamples = 2\nvalue = [2, 0]"] ;
664 -> 665 ;
666 [label="gini = 0.375\nsamples = 4\nvalue = [3, 1]"] ;
664 -> 666 ;
667 [label="gini = 0.0\nsamples = 3\nvalue = [3, 0]"] ;
663 -> 667 ;
668 [label="age <= 34.5\ngini = 0.5\nsamples = 4\nvalue = [2, 2]"] ;
662 -> 668 ;
669 [label="gini = 0.0\nsamples = 1\nvalue = [0, 1]"] ;
668 -> 669 ;
670 [label="age <= 35.5\ngini = 0.444\nsamples = 3\nvalue = [2, 1]"] ;
668 -> 670 ;
671 [label="gini = 0.0\nsamples = 1\nvalue = [1, 0]"] ;
670 -> 671 ;
672 [label="gini = 0.5\nsamples = 2\nvalue = [1, 1]"] ;
670 -> 672 ;
673 [label="gini = 0.0\nsamples = 14\nvalue = [14, 0]"] ;
661 -> 673 ;
674 [label="age <= 36.5\ngini = 0.5\nsamples = 2\nvalue = [1, 1]"] ;
646 -> 674 ;
675 [label="gini = 0.0\nsamples = 1\nvalue = [1, 0]"] ;
674 -> 675 ;
676 [label="gini = 0.0\nsamples = 1\nvalue = [0, 1]"] ;
674 -> 676 ;
677 [label="hours-per-week <= 4.5\ngini = 0.173\nsamples = 115\nvalue = [104, 11]"] ;
645 -> 677 ;
678 [label="gini = 0.0\nsamples = 11\nvalue = [11, 0]"] ;
677 -> 678 ;
679 [label="hours-per-week <= 7.5\ngini = 0.189\nsamples = 104\nvalue = [93, 11]"] ;
677 -> 679 ;
680 [label="hours-per-week <= 6.5\ngini = 0.287\nsamples = 23\nvalue = [19, 4]"] ;
679 -> 680 ;
681 [label="age <= 53.5\ngini = 0.219\nsamples = 16\nvalue = [14, 2]"] ;
680 -> 681 ;
682 [label="age <= 42.0\ngini = 0.142\nsamples = 13\nvalue = [12, 1]"] ;
681 -> 682 ;
683 [label="age <= 40.5\ngini = 0.375\nsamples = 4\nvalue = [3, 1]"] ;
682 -> 683 ;
684 [label="gini = 0.0\nsamples = 1\nvalue = [1, 0]"] ;
683 -> 684 ;
685 [label="capital-loss <= 814.0\ngini = 0.444\nsamples = 3\nvalue = [2, 1]"] ;
683 -> 685 ;
686 [label="hours-per-week <= 5.5\ngini = 0.5\nsamples = 2\nvalue = [1, 1]"] ;
685 -> 686 ;
687 [label="gini = 0.0\nsamples = 1\nvalue = [0, 1]"] ;
686 -> 687 ;
688 [label="gini = 0.0\nsamples = 1\nvalue = [1, 0]"] ;
686 -> 688 ;
689 [label="gini = 0.0\nsamples = 1\nvalue = [1, 0]"] ;
685 -> 689 ;
690 [label="gini = 0.0\nsamples = 9\nvalue = [9, 0]"] ;
682 -> 690 ;
691 [label="hours-per-week <= 5.5\ngini = 0.444\nsamples = 3\nvalue = [2, 1]"] ;
681 -> 691 ;
692 [label="gini = 0.0\nsamples = 2\nvalue = [2, 0]"] ;
691 -> 692 ;
693 [label="gini = 0.0\nsamples = 1\nvalue = [0, 1]"] ;
691 -> 693 ;
694 [label="age <= 42.5\ngini = 0.408\nsamples = 7\nvalue = [5, 2]"] ;
680 -> 694 ;
695 [label="gini = 0.0\nsamples = 2\nvalue = [2, 0]"] ;
694 -> 695 ;
696 [label="age <= 43.5\ngini = 0.48\nsamples = 5\nvalue = [3, 2]"] ;
694 -> 696 ;
697 [label="gini = 0.0\nsamples = 1\nvalue = [0, 1]"] ;
696 -> 697 ;
698 [label="age <= 46.0\ngini = 0.375\nsamples = 4\nvalue = [3, 1]"] ;
696 -> 698 ;
699 [label="gini = 0.0\nsamples = 2\nvalue = [2, 0]"] ;
698 -> 699 ;
700 [label="age <= 49.5\ngini = 0.5\nsamples = 2\nvalue = [1, 1]"] ;
698 -> 700 ;
701 [label="gini = 0.0\nsamples = 1\nvalue = [0, 1]"] ;
700 -> 701 ;
702 [label="gini = 0.0\nsamples = 1\nvalue = [1, 0]"] ;
700 -> 702 ;
703 [label="age <= 50.5\ngini = 0.158\nsamples = 81\nvalue = [74, 7]"] ;
679 -> 703 ;
704 [label="age <= 47.5\ngini = 0.122\nsamples = 46\nvalue = [43, 3]"] ;
703 -> 704 ;
705 [label="age <= 46.5\ngini = 0.153\nsamples = 36\nvalue = [33, 3]"] ;
704 -> 705 ;
706 [label="hours-per-week <= 9.0\ngini = 0.121\nsamples = 31\nvalue = [29, 2]"] ;
705 -> 706 ;
707 [label="gini = 0.0\nsamples = 9\nvalue = [9, 0]"] ;
706 -> 707 ;
708 [label="age <= 41.5\ngini = 0.165\nsamples = 22\nvalue = [20, 2]"] ;
706 -> 708 ;
709 [label="hours-per-week <= 11.0\ngini = 0.32\nsamples = 5\nvalue = [4, 1]"] ;
708 -> 709 ;
710 [label="gini = 0.0\nsamples = 3\nvalue = [3, 0]"] ;
709 -> 710 ;
711 [label="age <= 40.5\ngini = 0.5\nsamples = 2\nvalue = [1, 1]"] ;
709 -> 711 ;
712 [label="gini = 0.0\nsamples = 1\nvalue = [1, 0]"] ;
711 -> 712 ;
713 [label="gini = 0.0\nsamples = 1\nvalue = [0, 1]"] ;
711 -> 713 ;
714 [label="age <= 44.5\ngini = 0.111\nsamples = 17\nvalue = [16, 1]"] ;
708 -> 714 ;
715 [label="gini = 0.0\nsamples = 11\nvalue = [11, 0]"] ;
714 -> 715 ;
716 [label="age <= 45.5\ngini = 0.278\nsamples = 6\nvalue = [5, 1]"] ;
714 -> 716 ;
717 [label="gini = 0.375\nsamples = 4\nvalue = [3, 1]"] ;
716 -> 717 ;
718 [label="gini = 0.0\nsamples = 2\nvalue = [2, 0]"] ;
716 -> 718 ;
719 [label="hours-per-week <= 8.5\ngini = 0.32\nsamples = 5\nvalue = [4, 1]"] ;
705 -> 719 ;
720 [label="gini = 0.5\nsamples = 2\nvalue = [1, 1]"] ;
719 -> 720 ;
721 [label="gini = 0.0\nsamples = 3\nvalue = [3, 0]"] ;
719 -> 721 ;
722 [label="gini = 0.0\nsamples = 10\nvalue = [10, 0]"] ;
704 -> 722 ;
723 [label="age <= 51.5\ngini = 0.202\nsamples = 35\nvalue = [31, 4]"] ;
703 -> 723 ;
724 [label="hours-per-week <= 11.0\ngini = 0.444\nsamples = 6\nvalue = [4, 2]"] ;
723 -> 724 ;
725 [label="hours-per-week <= 9.0\ngini = 0.48\nsamples = 5\nvalue = [3, 2]"] ;
724 -> 725 ;
726 [label="gini = 0.375\nsamples = 4\nvalue = [3, 1]"] ;
725 -> 726 ;
727 [label="gini = 0.0\nsamples = 1\nvalue = [0, 1]"] ;
725 -> 727 ;
728 [label="gini = 0.0\nsamples = 1\nvalue = [1, 0]"] ;
724 -> 728 ;
729 [label="hours-per-week <= 11.0\ngini = 0.128\nsamples = 29\nvalue = [27, 2]"] ;
723 -> 729 ;
730 [label="age <= 57.5\ngini = 0.083\nsamples = 23\nvalue = [22, 1]"] ;
729 -> 730 ;
731 [label="gini = 0.0\nsamples = 16\nvalue = [16, 0]"] ;
730 -> 731 ;
732 [label="hours-per-week <= 9.0\ngini = 0.245\nsamples = 7\nvalue = [6, 1]"] ;
730 -> 732 ;
733 [label="gini = 0.0\nsamples = 3\nvalue = [3, 0]"] ;
732 -> 733 ;
734 [label="age <= 58.5\ngini = 0.375\nsamples = 4\nvalue = [3, 1]"] ;
732 -> 734 ;
735 [label="gini = 0.444\nsamples = 3\nvalue = [2, 1]"] ;
734 -> 735 ;
736 [label="gini = 0.0\nsamples = 1\nvalue = [1, 0]"] ;
734 -> 736 ;
737 [label="age <= 56.5\ngini = 0.278\nsamples = 6\nvalue = [5, 1]"] ;
729 -> 737 ;
738 [label="age <= 53.5\ngini = 0.5\nsamples = 2\nvalue = [1, 1]"] ;
737 -> 738 ;
739 [label="gini = 0.0\nsamples = 1\nvalue = [1, 0]"] ;
738 -> 739 ;
740 [label="gini = 0.0\nsamples = 1\nvalue = [0, 1]"] ;
738 -> 740 ;
741 [label="gini = 0.0\nsamples = 4\nvalue = [4, 0]"] ;
737 -> 741 ;
742 [label="hours-per-week <= 6.5\ngini = 0.332\nsamples = 19\nvalue = [15, 4]"] ;
644 -> 742 ;
743 [label="hours-per-week <= 4.5\ngini = 0.198\nsamples = 9\nvalue = [8, 1]"] ;
742 -> 743 ;
744 [label="gini = 0.0\nsamples = 3\nvalue = [3, 0]"] ;
743 -> 744 ;
745 [label="hours-per-week <= 5.5\ngini = 0.278\nsamples = 6\nvalue = [5, 1]"] ;
743 -> 745 ;
746 [label="age <= 60.5\ngini = 0.444\nsamples = 3\nvalue = [2, 1]"] ;
745 -> 746 ;
747 [label="gini = 0.0\nsamples = 1\nvalue = [1, 0]"] ;
746 -> 747 ;
748 [label="gini = 0.5\nsamples = 2\nvalue = [1, 1]"] ;
746 -> 748 ;
749 [label="gini = 0.0\nsamples = 3\nvalue = [3, 0]"] ;
745 -> 749 ;
750 [label="hours-per-week <= 9.0\ngini = 0.42\nsamples = 10\nvalue = [7, 3]"] ;
742 -> 750 ;
751 [label="gini = 0.0\nsamples = 2\nvalue = [0, 2]"] ;
750 -> 751 ;
752 [label="hours-per-week <= 11.0\ngini = 0.219\nsamples = 8\nvalue = [7, 1]"] ;
750 -> 752 ;
753 [label="gini = 0.0\nsamples = 4\nvalue = [4, 0]"] ;
752 -> 753 ;
754 [label="age <= 60.5\ngini = 0.375\nsamples = 4\nvalue = [3, 1]"] ;
752 -> 754 ;
755 [label="gini = 0.5\nsamples = 2\nvalue = [1, 1]"] ;
754 -> 755 ;
756 [label="gini = 0.0\nsamples = 2\nvalue = [2, 0]"] ;
754 -> 756 ;
757 [label="gini = 0.0\nsamples = 10\nvalue = [10, 0]"] ;
643 -> 757 ;
758 [label="age <= 54.5\ngini = 0.444\nsamples = 9\nvalue = [6, 3]"] ;
642 -> 758 ;
759 [label="age <= 41.0\ngini = 0.245\nsamples = 7\nvalue = [6, 1]"] ;
758 -> 759 ;
760 [label="hours-per-week <= 13.5\ngini = 0.5\nsamples = 2\nvalue = [1, 1]"] ;
759 -> 760 ;
761 [label="gini = 0.0\nsamples = 1\nvalue = [0, 1]"] ;
760 -> 761 ;
762 [label="gini = 0.0\nsamples = 1\nvalue = [1, 0]"] ;
760 -> 762 ;
763 [label="gini = 0.0\nsamples = 5\nvalue = [5, 0]"] ;
759 -> 763 ;
764 [label="gini = 0.0\nsamples = 2\nvalue = [0, 2]"] ;
758 -> 764 ;
765 [label="age <= 61.0\ngini = 0.142\nsamples = 78\nvalue = [72, 6]"] ;
641 -> 765 ;
766 [label="age <= 38.5\ngini = 0.123\nsamples = 76\nvalue = [71, 5]"] ;
765 -> 766 ;
767 [label="gini = 0.0\nsamples = 18\nvalue = [18, 0]"] ;
766 -> 767 ;
768 [label="age <= 41.5\ngini = 0.158\nsamples = 58\nvalue = [53, 5]"] ;
766 -> 768 ;
769 [label="age <= 40.5\ngini = 0.375\nsamples = 12\nvalue = [9, 3]"] ;
768 -> 769 ;
770 [label="age <= 39.5\ngini = 0.219\nsamples = 8\nvalue = [7, 1]"] ;
769 -> 770 ;
771 [label="capital-loss <= 860.5\ngini = 0.375\nsamples = 4\nvalue = [3, 1]"] ;
770 -> 771 ;
772 [label="gini = 0.444\nsamples = 3\nvalue = [2, 1]"] ;
771 -> 772 ;
773 [label="gini = 0.0\nsamples = 1\nvalue = [1, 0]"] ;
771 -> 773 ;
774 [label="gini = 0.0\nsamples = 4\nvalue = [4, 0]"] ;
770 -> 774 ;
775 [label="gini = 0.5\nsamples = 4\nvalue = [2, 2]"] ;
769 -> 775 ;
776 [label="age <= 59.0\ngini = 0.083\nsamples = 46\nvalue = [44, 2]"] ;
768 -> 776 ;
777 [label="age <= 50.5\ngini = 0.048\nsamples = 41\nvalue = [40, 1]"] ;
776 -> 777 ;
778 [label="gini = 0.0\nsamples = 25\nvalue = [25, 0]"] ;
777 -> 778 ;
779 [label="age <= 51.5\ngini = 0.117\nsamples = 16\nvalue = [15, 1]"] ;
777 -> 779 ;
780 [label="gini = 0.0\nsamples = 1\nvalue = [0, 1]"] ;
779 -> 780 ;
781 [label="gini = 0.0\nsamples = 15\nvalue = [15, 0]"] ;
779 -> 781 ;
782 [label="gini = 0.32\nsamples = 5\nvalue = [4, 1]"] ;
776 -> 782 ;
783 [label="gini = 0.5\nsamples = 2\nvalue = [1, 1]"] ;
765 -> 783 ;
784 [label="age <= 59.5\ngini = 0.263\nsamples = 418\nvalue = [353, 65]"] ;
640 -> 784 ;
785 [label="age <= 57.5\ngini = 0.278\nsamples = 366\nvalue = [305, 61]"] ;
784 -> 785 ;
786 [label="age <= 55.5\ngini = 0.258\nsamples = 329\nvalue = [279, 50]"] ;
785 -> 786 ;
787 [label="age <= 42.5\ngini = 0.265\nsamples = 311\nvalue = [262, 49]"] ;
786 -> 787 ;
788 [label="age <= 40.5\ngini = 0.225\nsamples = 155\nvalue = [135, 20]"] ;
787 -> 788 ;
789 [label="hours-per-week <= 16.5\ngini = 0.248\nsamples = 124\nvalue = [106, 18]"] ;
788 -> 789 ;
790 [label="age <= 37.5\ngini = 0.397\nsamples = 11\nvalue = [8, 3]"] ;
789 -> 790 ;
791 [label="age <= 36.5\ngini = 0.469\nsamples = 8\nvalue = [5, 3]"] ;
790 -> 791 ;
792 [label="age <= 35.5\ngini = 0.444\nsamples = 6\nvalue = [4, 2]"] ;
791 -> 792 ;
793 [label="gini = 0.48\nsamples = 5\nvalue = [3, 2]"] ;
792 -> 793 ;
794 [label="gini = 0.0\nsamples = 1\nvalue = [1, 0]"] ;
792 -> 794 ;
795 [label="gini = 0.5\nsamples = 2\nvalue = [1, 1]"] ;
791 -> 795 ;
796 [label="gini = 0.0\nsamples = 3\nvalue = [3, 0]"] ;
790 -> 796 ;
797 [label="age <= 38.5\ngini = 0.23\nsamples = 113\nvalue = [98, 15]"] ;
789 -> 797 ;
798 [label="hours-per-week <= 19.0\ngini = 0.206\nsamples = 77\nvalue = [68, 9]"] ;
797 -> 798 ;
799 [label="gini = 0.0\nsamples = 8\nvalue = [8, 0]"] ;
798 -> 799 ;
800 [label="age <= 37.5\ngini = 0.227\nsamples = 69\nvalue = [60, 9]"] ;
798 -> 800 ;
801 [label="age <= 36.5\ngini = 0.237\nsamples = 51\nvalue = [44, 7]"] ;
800 -> 801 ;
802 [label="hours-per-week <= 20.5\ngini = 0.219\nsamples = 40\nvalue = [35, 5]"] ;
801 -> 802 ;
803 [label="age <= 35.5\ngini = 0.264\nsamples = 32\nvalue = [27, 5]"] ;
802 -> 803 ;
804 [label="age <= 34.5\ngini = 0.245\nsamples = 21\nvalue = [18, 3]"] ;
803 -> 804 ;
805 [label="gini = 0.26\nsamples = 13\nvalue = [11, 2]"] ;
804 -> 805 ;
806 [label="gini = 0.219\nsamples = 8\nvalue = [7, 1]"] ;
804 -> 806 ;
807 [label="gini = 0.298\nsamples = 11\nvalue = [9, 2]"] ;
803 -> 807 ;
808 [label="gini = 0.0\nsamples = 8\nvalue = [8, 0]"] ;
802 -> 808 ;
809 [label="hours-per-week <= 22.0\ngini = 0.298\nsamples = 11\nvalue = [9, 2]"] ;
801 -> 809 ;
810 [label="gini = 0.198\nsamples = 9\nvalue = [8, 1]"] ;
809 -> 810 ;
811 [label="gini = 0.5\nsamples = 2\nvalue = [1, 1]"] ;
809 -> 811 ;
812 [label="hours-per-week <= 23.0\ngini = 0.198\nsamples = 18\nvalue = [16, 2]"] ;
800 -> 812 ;
813 [label="hours-per-week <= 21.0\ngini = 0.142\nsamples = 13\nvalue = [12, 1]"] ;
812 -> 813 ;
814 [label="gini = 0.153\nsamples = 12\nvalue = [11, 1]"] ;
813 -> 814 ;
815 [label="gini = 0.0\nsamples = 1\nvalue = [1, 0]"] ;
813 -> 815 ;
816 [label="gini = 0.32\nsamples = 5\nvalue = [4, 1]"] ;
812 -> 816 ;
817 [label="hours-per-week <= 17.5\ngini = 0.278\nsamples = 36\nvalue = [30, 6]"] ;
797 -> 817 ;
818 [label="gini = 0.0\nsamples = 1\nvalue = [0, 1]"] ;
817 -> 818 ;
819 [label="age <= 39.5\ngini = 0.245\nsamples = 35\nvalue = [30, 5]"] ;
817 -> 819 ;
820 [label="hours-per-week <= 21.0\ngini = 0.291\nsamples = 17\nvalue = [14, 3]"] ;
819 -> 820 ;
821 [label="hours-per-week <= 19.0\ngini = 0.397\nsamples = 11\nvalue = [8, 3]"] ;
820 -> 821 ;
822 [label="gini = 0.0\nsamples = 1\nvalue = [1, 0]"] ;
821 -> 822 ;
823 [label="gini = 0.42\nsamples = 10\nvalue = [7, 3]"] ;
821 -> 823 ;
824 [label="gini = 0.0\nsamples = 6\nvalue = [6, 0]"] ;
820 -> 824 ;
825 [label="hours-per-week <= 23.0\ngini = 0.198\nsamples = 18\nvalue = [16, 2]"] ;
819 -> 825 ;
826 [label="hours-per-week <= 21.0\ngini = 0.124\nsamples = 15\nvalue = [14, 1]"] ;
825 -> 826 ;
827 [label="gini = 0.133\nsamples = 14\nvalue = [13, 1]"] ;
826 -> 827 ;
828 [label="gini = 0.0\nsamples = 1\nvalue = [1, 0]"] ;
826 -> 828 ;
829 [label="gini = 0.444\nsamples = 3\nvalue = [2, 1]"] ;
825 -> 829 ;
830 [label="age <= 41.5\ngini = 0.121\nsamples = 31\nvalue = [29, 2]"] ;
788 -> 830 ;
831 [label="gini = 0.0\nsamples = 17\nvalue = [17, 0]"] ;
830 -> 831 ;
832 [label="hours-per-week <= 20.5\ngini = 0.245\nsamples = 14\nvalue = [12, 2]"] ;
830 -> 832 ;
833 [label="hours-per-week <= 18.0\ngini = 0.5\nsamples = 4\nvalue = [2, 2]"] ;
832 -> 833 ;
834 [label="gini = 0.0\nsamples = 1\nvalue = [1, 0]"] ;
833 -> 834 ;
835 [label="gini = 0.444\nsamples = 3\nvalue = [1, 2]"] ;
833 -> 835 ;
836 [label="gini = 0.0\nsamples = 10\nvalue = [10, 0]"] ;
832 -> 836 ;
837 [label="age <= 45.5\ngini = 0.303\nsamples = 156\nvalue = [127, 29]"] ;
787 -> 837 ;
838 [label="hours-per-week <= 23.0\ngini = 0.391\nsamples = 45\nvalue = [33, 12]"] ;
837 -> 838 ;
839 [label="hours-per-week <= 18.5\ngini = 0.334\nsamples = 33\nvalue = [26, 7]"] ;
838 -> 839 ;
840 [label="hours-per-week <= 17.5\ngini = 0.49\nsamples = 7\nvalue = [4, 3]"] ;
839 -> 840 ;
841 [label="age <= 43.5\ngini = 0.32\nsamples = 5\nvalue = [4, 1]"] ;
840 -> 841 ;
842 [label="gini = 0.0\nsamples = 2\nvalue = [2, 0]"] ;
841 -> 842 ;
843 [label="age <= 44.5\ngini = 0.444\nsamples = 3\nvalue = [2, 1]"] ;
841 -> 843 ;
844 [label="gini = 0.5\nsamples = 2\nvalue = [1, 1]"] ;
843 -> 844 ;
845 [label="gini = 0.0\nsamples = 1\nvalue = [1, 0]"] ;
843 -> 845 ;
846 [label="gini = 0.0\nsamples = 2\nvalue = [0, 2]"] ;
840 -> 846 ;
847 [label="age <= 44.5\ngini = 0.26\nsamples = 26\nvalue = [22, 4]"] ;
839 -> 847 ;
848 [label="hours-per-week <= 20.5\ngini = 0.332\nsamples = 19\nvalue = [15, 4]"] ;
847 -> 848 ;
849 [label="capital-loss <= 808.5\ngini = 0.391\nsamples = 15\nvalue = [11, 4]"] ;
848 -> 849 ;
850 [label="age <= 43.5\ngini = 0.408\nsamples = 14\nvalue = [10, 4]"] ;
849 -> 850 ;
851 [label="gini = 0.375\nsamples = 8\nvalue = [6, 2]"] ;
850 -> 851 ;
852 [label="gini = 0.444\nsamples = 6\nvalue = [4, 2]"] ;
850 -> 852 ;
853 [label="gini = 0.0\nsamples = 1\nvalue = [1, 0]"] ;
849 -> 853 ;
854 [label="gini = 0.0\nsamples = 4\nvalue = [4, 0]"] ;
848 -> 854 ;
855 [label="gini = 0.0\nsamples = 7\nvalue = [7, 0]"] ;
847 -> 855 ;
856 [label="age <= 44.5\ngini = 0.486\nsamples = 12\nvalue = [7, 5]"] ;
838 -> 856 ;
857 [label="age <= 43.5\ngini = 0.444\nsamples = 9\nvalue = [6, 3]"] ;
856 -> 857 ;
858 [label="gini = 0.48\nsamples = 5\nvalue = [3, 2]"] ;
857 -> 858 ;
859 [label="gini = 0.375\nsamples = 4\nvalue = [3, 1]"] ;
857 -> 859 ;
860 [label="gini = 0.444\nsamples = 3\nvalue = [1, 2]"] ;
856 -> 860 ;
861 [label="hours-per-week <= 22.5\ngini = 0.259\nsamples = 111\nvalue = [94, 17]"] ;
837 -> 861 ;
862 [label="hours-per-week <= 20.5\ngini = 0.278\nsamples = 96\nvalue = [80, 16]"] ;
861 -> 862 ;
863 [label="age <= 52.5\ngini = 0.263\nsamples = 90\nvalue = [76, 14]"] ;
862 -> 863 ;
864 [label="hours-per-week <= 19.5\ngini = 0.305\nsamples = 64\nvalue = [52, 12]"] ;
863 -> 864 ;
865 [label="age <= 48.5\ngini = 0.117\nsamples = 16\nvalue = [15, 1]"] ;
864 -> 865 ;
866 [label="age <= 47.5\ngini = 0.219\nsamples = 8\nvalue = [7, 1]"] ;
865 -> 866 ;
867 [label="gini = 0.0\nsamples = 4\nvalue = [4, 0]"] ;
866 -> 867 ;
868 [label="hours-per-week <= 17.0\ngini = 0.375\nsamples = 4\nvalue = [3, 1]"] ;
866 -> 868 ;
869 [label="gini = 0.444\nsamples = 3\nvalue = [2, 1]"] ;
868 -> 869 ;
870 [label="gini = 0.0\nsamples = 1\nvalue = [1, 0]"] ;
868 -> 870 ;
871 [label="gini = 0.0\nsamples = 8\nvalue = [8, 0]"] ;
865 -> 871 ;
872 [label="age <= 49.5\ngini = 0.353\nsamples = 48\nvalue = [37, 11]"] ;
864 -> 872 ;
873 [label="age <= 46.5\ngini = 0.285\nsamples = 29\nvalue = [24, 5]"] ;
872 -> 873 ;
874 [label="gini = 0.0\nsamples = 4\nvalue = [4, 0]"] ;
873 -> 874 ;
875 [label="age <= 47.5\ngini = 0.32\nsamples = 25\nvalue = [20, 5]"] ;
873 -> 875 ;
876 [label="gini = 0.397\nsamples = 11\nvalue = [8, 3]"] ;
875 -> 876 ;
877 [label="capital-loss <= 161.5\ngini = 0.245\nsamples = 14\nvalue = [12, 2]"] ;
875 -> 877 ;
878 [label="age <= 48.5\ngini = 0.26\nsamples = 13\nvalue = [11, 2]"] ;
877 -> 878 ;
879 [label="gini = 0.245\nsamples = 7\nvalue = [6, 1]"] ;
878 -> 879 ;
880 [label="gini = 0.278\nsamples = 6\nvalue = [5, 1]"] ;
878 -> 880 ;
881 [label="gini = 0.0\nsamples = 1\nvalue = [1, 0]"] ;
877 -> 881 ;
882 [label="age <= 51.5\ngini = 0.432\nsamples = 19\nvalue = [13, 6]"] ;
872 -> 882 ;
883 [label="age <= 50.5\ngini = 0.444\nsamples = 12\nvalue = [8, 4]"] ;
882 -> 883 ;
884 [label="gini = 0.444\nsamples = 3\nvalue = [2, 1]"] ;
883 -> 884 ;
885 [label="gini = 0.444\nsamples = 9\nvalue = [6, 3]"] ;
883 -> 885 ;
886 [label="gini = 0.408\nsamples = 7\nvalue = [5, 2]"] ;
882 -> 886 ;
887 [label="hours-per-week <= 19.0\ngini = 0.142\nsamples = 26\nvalue = [24, 2]"] ;
863 -> 887 ;
888 [label="hours-per-week <= 17.0\ngini = 0.375\nsamples = 4\nvalue = [3, 1]"] ;
887 -> 888 ;
889 [label="gini = 0.0\nsamples = 1\nvalue = [1, 0]"] ;
888 -> 889 ;
890 [label="gini = 0.444\nsamples = 3\nvalue = [2, 1]"] ;
888 -> 890 ;
891 [label="age <= 54.5\ngini = 0.087\nsamples = 22\nvalue = [21, 1]"] ;
887 -> 891 ;
892 [label="gini = 0.0\nsamples = 12\nvalue = [12, 0]"] ;
891 -> 892 ;
893 [label="gini = 0.18\nsamples = 10\nvalue = [9, 1]"] ;
891 -> 893 ;
894 [label="age <= 47.5\ngini = 0.444\nsamples = 6\nvalue = [4, 2]"] ;
862 -> 894 ;
895 [label="gini = 0.0\nsamples = 1\nvalue = [0, 1]"] ;
894 -> 895 ;
896 [label="age <= 52.5\ngini = 0.32\nsamples = 5\nvalue = [4, 1]"] ;
894 -> 896 ;
897 [label="gini = 0.0\nsamples = 3\nvalue = [3, 0]"] ;
896 -> 897 ;
898 [label="hours-per-week <= 21.5\ngini = 0.5\nsamples = 2\nvalue = [1, 1]"] ;
896 -> 898 ;
899 [label="gini = 0.0\nsamples = 1\nvalue = [0, 1]"] ;
898 -> 899 ;
900 [label="gini = 0.0\nsamples = 1\nvalue = [1, 0]"] ;
898 -> 900 ;
901 [label="age <= 54.0\ngini = 0.124\nsamples = 15\nvalue = [14, 1]"] ;
861 -> 901 ;
902 [label="gini = 0.0\nsamples = 13\nvalue = [13, 0]"] ;
901 -> 902 ;
903 [label="hours-per-week <= 23.5\ngini = 0.5\nsamples = 2\nvalue = [1, 1]"] ;
901 -> 903 ;
904 [label="gini = 0.0\nsamples = 1\nvalue = [1, 0]"] ;
903 -> 904 ;
905 [label="gini = 0.0\nsamples = 1\nvalue = [0, 1]"] ;
903 -> 905 ;
906 [label="age <= 56.5\ngini = 0.105\nsamples = 18\nvalue = [17, 1]"] ;
786 -> 906 ;
907 [label="hours-per-week <= 19.0\ngini = 0.153\nsamples = 12\nvalue = [11, 1]"] ;
906 -> 907 ;
908 [label="gini = 0.0\nsamples = 3\nvalue = [3, 0]"] ;
907 -> 908 ;
909 [label="gini = 0.198\nsamples = 9\nvalue = [8, 1]"] ;
907 -> 909 ;
910 [label="gini = 0.0\nsamples = 6\nvalue = [6, 0]"] ;
906 -> 910 ;
911 [label="hours-per-week <= 21.0\ngini = 0.418\nsamples = 37\nvalue = [26, 11]"] ;
785 -> 911 ;
912 [label="hours-per-week <= 19.5\ngini = 0.375\nsamples = 28\nvalue = [21, 7]"] ;
911 -> 912 ;
913 [label="age <= 58.5\ngini = 0.245\nsamples = 7\nvalue = [6, 1]"] ;
912 -> 913 ;
914 [label="gini = 0.0\nsamples = 3\nvalue = [3, 0]"] ;
913 -> 914 ;
915 [label="hours-per-week <= 17.0\ngini = 0.375\nsamples = 4\nvalue = [3, 1]"] ;
913 -> 915 ;
916 [label="gini = 0.5\nsamples = 2\nvalue = [1, 1]"] ;
915 -> 916 ;
917 [label="gini = 0.0\nsamples = 2\nvalue = [2, 0]"] ;
915 -> 917 ;
918 [label="age <= 58.5\ngini = 0.408\nsamples = 21\nvalue = [15, 6]"] ;
912 -> 918 ;
919 [label="gini = 0.459\nsamples = 14\nvalue = [9, 5]"] ;
918 -> 919 ;
920 [label="gini = 0.245\nsamples = 7\nvalue = [6, 1]"] ;
918 -> 920 ;
921 [label="hours-per-week <= 23.0\ngini = 0.494\nsamples = 9\nvalue = [5, 4]"] ;
911 -> 921 ;
922 [label="gini = 0.0\nsamples = 1\nvalue = [0, 1]"] ;
921 -> 922 ;
923 [label="age <= 58.5\ngini = 0.469\nsamples = 8\nvalue = [5, 3]"] ;
921 -> 923 ;
924 [label="gini = 0.444\nsamples = 6\nvalue = [4, 2]"] ;
923 -> 924 ;
925 [label="gini = 0.5\nsamples = 2\nvalue = [1, 1]"] ;
923 -> 925 ;
926 [label="hours-per-week <= 20.5\ngini = 0.142\nsamples = 52\nvalue = [48, 4]"] ;
784 -> 926 ;
927 [label="age <= 61.5\ngini = 0.193\nsamples = 37\nvalue = [33, 4]"] ;
926 -> 927 ;
928 [label="hours-per-week <= 16.5\ngini = 0.227\nsamples = 23\nvalue = [20, 3]"] ;
927 -> 928 ;
929 [label="age <= 60.5\ngini = 0.375\nsamples = 4\nvalue = [3, 1]"] ;
928 -> 929 ;
930 [label="gini = 0.0\nsamples = 1\nvalue = [0, 1]"] ;
929 -> 930 ;
931 [label="gini = 0.0\nsamples = 3\nvalue = [3, 0]"] ;
929 -> 931 ;
932 [label="age <= 60.5\ngini = 0.188\nsamples = 19\nvalue = [17, 2]"] ;
928 -> 932 ;
933 [label="gini = 0.0\nsamples = 6\nvalue = [6, 0]"] ;
932 -> 933 ;
934 [label="hours-per-week <= 18.5\ngini = 0.26\nsamples = 13\nvalue = [11, 2]"] ;
932 -> 934 ;
935 [label="gini = 0.0\nsamples = 1\nvalue = [1, 0]"] ;
934 -> 935 ;
936 [label="gini = 0.278\nsamples = 12\nvalue = [10, 2]"] ;
934 -> 936 ;
937 [label="hours-per-week <= 19.0\ngini = 0.133\nsamples = 14\nvalue = [13, 1]"] ;
927 -> 937 ;
938 [label="gini = 0.0\nsamples = 7\nvalue = [7, 0]"] ;
937 -> 938 ;
939 [label="gini = 0.245\nsamples = 7\nvalue = [6, 1]"] ;
937 -> 939 ;
940 [label="gini = 0.0\nsamples = 15\nvalue = [15, 0]"] ;
926 -> 940 ;
941 [label="gini = 0.0\nsamples = 22\nvalue = [22, 0]"] ;
639 -> 941 ;
942 [label="hours-per-week <= 32.5\ngini = 0.18\nsamples = 761\nvalue = [685, 76]"] ;
638 -> 942 ;
943 [label="hours-per-week <= 28.5\ngini = 0.186\nsamples = 732\nvalue = [656, 76]"] ;
942 -> 943 ;
944 [label="age <= 40.5\ngini = 0.144\nsamples = 230\nvalue = [212, 18]"] ;
943 -> 944 ;
945 [label="age <= 39.5\ngini = 0.104\nsamples = 73\nvalue = [69, 4]"] ;
944 -> 945 ;
946 [label="age <= 37.5\ngini = 0.119\nsamples = 63\nvalue = [59, 4]"] ;
945 -> 946 ;
947 [label="hours-per-week <= 26.0\ngini = 0.093\nsamples = 41\nvalue = [39, 2]"] ;
946 -> 947 ;
948 [label="age <= 36.5\ngini = 0.128\nsamples = 29\nvalue = [27, 2]"] ;
947 -> 948 ;
949 [label="age <= 35.5\ngini = 0.165\nsamples = 22\nvalue = [20, 2]"] ;
948 -> 949 ;
950 [label="age <= 34.5\ngini = 0.117\nsamples = 16\nvalue = [15, 1]"] ;
949 -> 950 ;
951 [label="gini = 0.165\nsamples = 11\nvalue = [10, 1]"] ;
950 -> 951 ;
952 [label="gini = 0.0\nsamples = 5\nvalue = [5, 0]"] ;
950 -> 952 ;
953 [label="gini = 0.278\nsamples = 6\nvalue = [5, 1]"] ;
949 -> 953 ;
954 [label="gini = 0.0\nsamples = 7\nvalue = [7, 0]"] ;
948 -> 954 ;
955 [label="gini = 0.0\nsamples = 12\nvalue = [12, 0]"] ;
947 -> 955 ;
956 [label="hours-per-week <= 27.0\ngini = 0.165\nsamples = 22\nvalue = [20, 2]"] ;
946 -> 956 ;
957 [label="age <= 38.5\ngini = 0.105\nsamples = 18\nvalue = [17, 1]"] ;
956 -> 957 ;
958 [label="gini = 0.0\nsamples = 7\nvalue = [7, 0]"] ;
957 -> 958 ;
959 [label="hours-per-week <= 25.5\ngini = 0.165\nsamples = 11\nvalue = [10, 1]"] ;
957 -> 959 ;
960 [label="gini = 0.198\nsamples = 9\nvalue = [8, 1]"] ;
959 -> 960 ;
961 [label="gini = 0.0\nsamples = 2\nvalue = [2, 0]"] ;
959 -> 961 ;
962 [label="age <= 38.5\ngini = 0.375\nsamples = 4\nvalue = [3, 1]"] ;
956 -> 962 ;
963 [label="gini = 0.444\nsamples = 3\nvalue = [2, 1]"] ;
962 -> 963 ;
964 [label="gini = 0.0\nsamples = 1\nvalue = [1, 0]"] ;
962 -> 964 ;
965 [label="gini = 0.0\nsamples = 10\nvalue = [10, 0]"] ;
945 -> 965 ;
966 [label="age <= 42.5\ngini = 0.162\nsamples = 157\nvalue = [143, 14]"] ;
944 -> 966 ;
967 [label="hours-per-week <= 27.5\ngini = 0.32\nsamples = 20\nvalue = [16, 4]"] ;
966 -> 967 ;
968 [label="hours-per-week <= 26.0\ngini = 0.346\nsamples = 18\nvalue = [14, 4]"] ;
967 -> 968 ;
969 [label="age <= 41.5\ngini = 0.305\nsamples = 16\nvalue = [13, 3]"] ;
968 -> 969 ;
970 [label="gini = 0.408\nsamples = 7\nvalue = [5, 2]"] ;
969 -> 970 ;
971 [label="gini = 0.198\nsamples = 9\nvalue = [8, 1]"] ;
969 -> 971 ;
972 [label="age <= 41.5\ngini = 0.5\nsamples = 2\nvalue = [1, 1]"] ;
968 -> 972 ;
973 [label="gini = 0.0\nsamples = 1\nvalue = [1, 0]"] ;
972 -> 973 ;
974 [label="gini = 0.0\nsamples = 1\nvalue = [0, 1]"] ;
972 -> 974 ;
975 [label="gini = 0.0\nsamples = 2\nvalue = [2, 0]"] ;
967 -> 975 ;
976 [label="age <= 47.5\ngini = 0.135\nsamples = 137\nvalue = [127, 10]"] ;
966 -> 976 ;
977 [label="hours-per-week <= 27.5\ngini = 0.077\nsamples = 50\nvalue = [48, 2]"] ;
976 -> 977 ;
978 [label="age <= 43.5\ngini = 0.044\nsamples = 44\nvalue = [43, 1]"] ;
977 -> 978 ;
979 [label="hours-per-week <= 25.5\ngini = 0.219\nsamples = 8\nvalue = [7, 1]"] ;
978 -> 979 ;
980 [label="gini = 0.245\nsamples = 7\nvalue = [6, 1]"] ;
979 -> 980 ;
981 [label="gini = 0.0\nsamples = 1\nvalue = [1, 0]"] ;
979 -> 981 ;
982 [label="gini = 0.0\nsamples = 36\nvalue = [36, 0]"] ;
978 -> 982 ;
983 [label="age <= 45.5\ngini = 0.278\nsamples = 6\nvalue = [5, 1]"] ;
977 -> 983 ;
984 [label="gini = 0.0\nsamples = 3\nvalue = [3, 0]"] ;
983 -> 984 ;
985 [label="gini = 0.444\nsamples = 3\nvalue = [2, 1]"] ;
983 -> 985 ;
986 [label="age <= 48.5\ngini = 0.167\nsamples = 87\nvalue = [79, 8]"] ;
976 -> 986 ;
987 [label="hours-per-week <= 26.5\ngini = 0.375\nsamples = 8\nvalue = [6, 2]"] ;
986 -> 987 ;
988 [label="gini = 0.408\nsamples = 7\nvalue = [5, 2]"] ;
987 -> 988 ;
989 [label="gini = 0.0\nsamples = 1\nvalue = [1, 0]"] ;
987 -> 989 ;
990 [label="age <= 52.5\ngini = 0.14\nsamples = 79\nvalue = [73, 6]"] ;
986 -> 990 ;
991 [label="hours-per-week <= 25.5\ngini = 0.074\nsamples = 26\nvalue = [25, 1]"] ;
990 -> 991 ;
992 [label="gini = 0.0\nsamples = 19\nvalue = [19, 0]"] ;
991 -> 992 ;
993 [label="hours-per-week <= 27.0\ngini = 0.245\nsamples = 7\nvalue = [6, 1]"] ;
991 -> 993 ;
994 [label="age <= 50.0\ngini = 0.5\nsamples = 2\nvalue = [1, 1]"] ;
993 -> 994 ;
995 [label="gini = 0.0\nsamples = 1\nvalue = [0, 1]"] ;
994 -> 995 ;
996 [label="gini = 0.0\nsamples = 1\nvalue = [1, 0]"] ;
994 -> 996 ;
997 [label="gini = 0.0\nsamples = 5\nvalue = [5, 0]"] ;
993 -> 997 ;
998 [label="age <= 54.5\ngini = 0.171\nsamples = 53\nvalue = [48, 5]"] ;
990 -> 998 ;
999 [label="hours-per-week <= 27.0\ngini = 0.408\nsamples = 7\nvalue = [5, 2]"] ;
998 -> 999 ;
1000 [label="age <= 53.5\ngini = 0.32\nsamples = 5\nvalue = [4, 1]"] ;
999 -> 1000 ;
1001 [label="gini = 0.0\nsamples = 3\nvalue = [3, 0]"] ;
1000 -> 1001 ;
1002 [label="gini = 0.5\nsamples = 2\nvalue = [1, 1]"] ;
1000 -> 1002 ;
1003 [label="age <= 53.5\ngini = 0.5\nsamples = 2\nvalue = [1, 1]"] ;
999 -> 1003 ;
1004 [label="gini = 0.0\nsamples = 1\nvalue = [0, 1]"] ;
1003 -> 1004 ;
1005 [label="gini = 0.0\nsamples = 1\nvalue = [1, 0]"] ;
1003 -> 1005 ;
1006 [label="age <= 56.5\ngini = 0.122\nsamples = 46\nvalue = [43, 3]"] ;
998 -> 1006 ;
1007 [label="gini = 0.0\nsamples = 16\nvalue = [16, 0]"] ;
1006 -> 1007 ;
1008 [label="age <= 57.5\ngini = 0.18\nsamples = 30\nvalue = [27, 3]"] ;
1006 -> 1008 ;
1009 [label="hours-per-week <= 25.5\ngini = 0.444\nsamples = 6\nvalue = [4, 2]"] ;
1008 -> 1009 ;
1010 [label="capital-loss <= 859.5\ngini = 0.5\nsamples = 4\nvalue = [2, 2]"] ;
1009 -> 1010 ;
1011 [label="gini = 0.444\nsamples = 3\nvalue = [1, 2]"] ;
1010 -> 1011 ;
1012 [label="gini = 0.0\nsamples = 1\nvalue = [1, 0]"] ;
1010 -> 1012 ;
1013 [label="gini = 0.0\nsamples = 2\nvalue = [2, 0]"] ;
1009 -> 1013 ;
1014 [label="age <= 60.5\ngini = 0.08\nsamples = 24\nvalue = [23, 1]"] ;
1008 -> 1014 ;
1015 [label="gini = 0.0\nsamples = 15\nvalue = [15, 0]"] ;
1014 -> 1015 ;
1016 [label="age <= 61.5\ngini = 0.198\nsamples = 9\nvalue = [8, 1]"] ;
1014 -> 1016 ;
1017 [label="gini = 0.32\nsamples = 5\nvalue = [4, 1]"] ;
1016 -> 1017 ;
1018 [label="gini = 0.0\nsamples = 4\nvalue = [4, 0]"] ;
1016 -> 1018 ;
1019 [label="age <= 50.5\ngini = 0.204\nsamples = 502\nvalue = [444, 58]"] ;
943 -> 1019 ;
1020 [label="hours-per-week <= 29.5\ngini = 0.182\nsamples = 355\nvalue = [319, 36]"] ;
1019 -> 1020 ;
1021 [label="gini = 0.0\nsamples = 1\nvalue = [0, 1]"] ;
1020 -> 1021 ;
1022 [label="age <= 48.5\ngini = 0.178\nsamples = 354\nvalue = [319, 35]"] ;
1020 -> 1022 ;
1023 [label="capital-gain <= 735.5\ngini = 0.188\nsamples = 324\nvalue = [290, 34]"] ;
1022 -> 1023 ;
1024 [label="age <= 46.5\ngini = 0.194\nsamples = 313\nvalue = [279, 34]"] ;
1023 -> 1024 ;
1025 [label="age <= 36.5\ngini = 0.187\nsamples = 277\nvalue = [248, 29]"] ;
1024 -> 1025 ;
1026 [label="hours-per-week <= 31.0\ngini = 0.216\nsamples = 73\nvalue = [64, 9]"] ;
1025 -> 1026 ;
1027 [label="age <= 35.5\ngini = 0.165\nsamples = 55\nvalue = [50, 5]"] ;
1026 -> 1027 ;
1028 [label="age <= 34.5\ngini = 0.097\nsamples = 39\nvalue = [37, 2]"] ;
1027 -> 1028 ;
1029 [label="gini = 0.105\nsamples = 18\nvalue = [17, 1]"] ;
1028 -> 1029 ;
1030 [label="gini = 0.091\nsamples = 21\nvalue = [20, 1]"] ;
1028 -> 1030 ;
1031 [label="gini = 0.305\nsamples = 16\nvalue = [13, 3]"] ;
1027 -> 1031 ;
1032 [label="age <= 34.5\ngini = 0.346\nsamples = 18\nvalue = [14, 4]"] ;
1026 -> 1032 ;
1033 [label="gini = 0.5\nsamples = 4\nvalue = [2, 2]"] ;
1032 -> 1033 ;
1034 [label="age <= 35.5\ngini = 0.245\nsamples = 14\nvalue = [12, 2]"] ;
1032 -> 1034 ;
1035 [label="gini = 0.278\nsamples = 6\nvalue = [5, 1]"] ;
1034 -> 1035 ;
1036 [label="gini = 0.219\nsamples = 8\nvalue = [7, 1]"] ;
1034 -> 1036 ;
1037 [label="hours-per-week <= 30.5\ngini = 0.177\nsamples = 204\nvalue = [184, 20]"] ;
1025 -> 1037 ;
1038 [label="age <= 40.5\ngini = 0.188\nsamples = 152\nvalue = [136, 16]"] ;
1037 -> 1038 ;
1039 [label="age <= 39.5\ngini = 0.216\nsamples = 73\nvalue = [64, 9]"] ;
1038 -> 1039 ;
1040 [label="age <= 38.5\ngini = 0.198\nsamples = 54\nvalue = [48, 6]"] ;
1039 -> 1040 ;
1041 [label="age <= 37.5\ngini = 0.188\nsamples = 38\nvalue = [34, 4]"] ;
1040 -> 1041 ;
1042 [label="gini = 0.185\nsamples = 29\nvalue = [26, 3]"] ;
1041 -> 1042 ;
1043 [label="gini = 0.198\nsamples = 9\nvalue = [8, 1]"] ;
1041 -> 1043 ;
1044 [label="gini = 0.219\nsamples = 16\nvalue = [14, 2]"] ;
1040 -> 1044 ;
1045 [label="gini = 0.266\nsamples = 19\nvalue = [16, 3]"] ;
1039 -> 1045 ;
1046 [label="age <= 43.5\ngini = 0.162\nsamples = 79\nvalue = [72, 7]"] ;
1038 -> 1046 ;
1047 [label="age <= 42.5\ngini = 0.18\nsamples = 40\nvalue = [36, 4]"] ;
1046 -> 1047 ;
1048 [label="age <= 41.5\ngini = 0.142\nsamples = 26\nvalue = [24, 2]"] ;
1047 -> 1048 ;
1049 [label="gini = 0.153\nsamples = 12\nvalue = [11, 1]"] ;
1048 -> 1049 ;
1050 [label="gini = 0.133\nsamples = 14\nvalue = [13, 1]"] ;
1048 -> 1050 ;
1051 [label="gini = 0.245\nsamples = 14\nvalue = [12, 2]"] ;
1047 -> 1051 ;
1052 [label="age <= 45.5\ngini = 0.142\nsamples = 39\nvalue = [36, 3]"] ;
1046 -> 1052 ;
1053 [label="age <= 44.5\ngini = 0.147\nsamples = 25\nvalue = [23, 2]"] ;
1052 -> 1053 ;
1054 [label="gini = 0.142\nsamples = 13\nvalue = [12, 1]"] ;
1053 -> 1054 ;
1055 [label="gini = 0.153\nsamples = 12\nvalue = [11, 1]"] ;
1053 -> 1055 ;
1056 [label="gini = 0.133\nsamples = 14\nvalue = [13, 1]"] ;
1052 -> 1056 ;
1057 [label="age <= 43.5\ngini = 0.142\nsamples = 52\nvalue = [48, 4]"] ;
1037 -> 1057 ;
1058 [label="age <= 41.5\ngini = 0.1\nsamples = 38\nvalue = [36, 2]"] ;
1057 -> 1058 ;
1059 [label="age <= 40.5\ngini = 0.124\nsamples = 30\nvalue = [28, 2]"] ;
1058 -> 1059 ;
1060 [label="age <= 38.5\ngini = 0.08\nsamples = 24\nvalue = [23, 1]"] ;
1059 -> 1060 ;
1061 [label="age <= 37.5\ngini = 0.133\nsamples = 14\nvalue = [13, 1]"] ;
1060 -> 1061 ;
1062 [label="gini = 0.0\nsamples = 7\nvalue = [7, 0]"] ;
1061 -> 1062 ;
1063 [label="gini = 0.245\nsamples = 7\nvalue = [6, 1]"] ;
1061 -> 1063 ;
1064 [label="gini = 0.0\nsamples = 10\nvalue = [10, 0]"] ;
1060 -> 1064 ;
1065 [label="gini = 0.278\nsamples = 6\nvalue = [5, 1]"] ;
1059 -> 1065 ;
1066 [label="gini = 0.0\nsamples = 8\nvalue = [8, 0]"] ;
1058 -> 1066 ;
1067 [label="age <= 45.5\ngini = 0.245\nsamples = 14\nvalue = [12, 2]"] ;
1057 -> 1067 ;
1068 [label="age <= 44.5\ngini = 0.278\nsamples = 12\nvalue = [10, 2]"] ;
1067 -> 1068 ;
1069 [label="gini = 0.278\nsamples = 6\nvalue = [5, 1]"] ;
1068 -> 1069 ;
1070 [label="gini = 0.278\nsamples = 6\nvalue = [5, 1]"] ;
1068 -> 1070 ;
1071 [label="gini = 0.0\nsamples = 2\nvalue = [2, 0]"] ;
1067 -> 1071 ;
1072 [label="hours-per-week <= 30.5\ngini = 0.239\nsamples = 36\nvalue = [31, 5]"] ;
1024 -> 1072 ;
1073 [label="age <= 47.5\ngini = 0.33\nsamples = 24\nvalue = [19, 5]"] ;
1072 -> 1073 ;
1074 [label="capital-loss <= 859.5\ngini = 0.397\nsamples = 11\nvalue = [8, 3]"] ;
1073 -> 1074 ;
1075 [label="gini = 0.42\nsamples = 10\nvalue = [7, 3]"] ;
1074 -> 1075 ;
1076 [label="gini = 0.0\nsamples = 1\nvalue = [1, 0]"] ;
1074 -> 1076 ;
1077 [label="gini = 0.26\nsamples = 13\nvalue = [11, 2]"] ;
1073 -> 1077 ;
1078 [label="gini = 0.0\nsamples = 12\nvalue = [12, 0]"] ;
1072 -> 1078 ;
1079 [label="gini = 0.0\nsamples = 11\nvalue = [11, 0]"] ;
1023 -> 1079 ;
1080 [label="hours-per-week <= 31.0\ngini = 0.064\nsamples = 30\nvalue = [29, 1]"] ;
1022 -> 1080 ;
1081 [label="age <= 49.5\ngini = 0.105\nsamples = 18\nvalue = [17, 1]"] ;
1080 -> 1081 ;
1082 [label="gini = 0.165\nsamples = 11\nvalue = [10, 1]"] ;
1081 -> 1082 ;
1083 [label="gini = 0.0\nsamples = 7\nvalue = [7, 0]"] ;
1081 -> 1083 ;
1084 [label="gini = 0.0\nsamples = 12\nvalue = [12, 0]"] ;
1080 -> 1084 ;
1085 [label="capital-gain <= 3032.0\ngini = 0.255\nsamples = 147\nvalue = [125, 22]"] ;
1019 -> 1085 ;
1086 [label="age <= 59.5\ngini = 0.239\nsamples = 144\nvalue = [124, 20]"] ;
1085 -> 1086 ;
1087 [label="age <= 56.5\ngini = 0.213\nsamples = 107\nvalue = [94, 13]"] ;
1086 -> 1087 ;
1088 [label="age <= 51.5\ngini = 0.245\nsamples = 77\nvalue = [66, 11]"] ;
1087 -> 1088 ;
1089 [label="hours-per-week <= 31.0\ngini = 0.133\nsamples = 14\nvalue = [13, 1]"] ;
1088 -> 1089 ;
1090 [label="capital-loss <= 814.0\ngini = 0.165\nsamples = 11\nvalue = [10, 1]"] ;
1089 -> 1090 ;
1091 [label="gini = 0.18\nsamples = 10\nvalue = [9, 1]"] ;
1090 -> 1091 ;
1092 [label="gini = 0.0\nsamples = 1\nvalue = [1, 0]"] ;
1090 -> 1092 ;
1093 [label="gini = 0.0\nsamples = 3\nvalue = [3, 0]"] ;
1089 -> 1093 ;
1094 [label="age <= 52.5\ngini = 0.267\nsamples = 63\nvalue = [53, 10]"] ;
1088 -> 1094 ;
1095 [label="hours-per-week <= 31.0\ngini = 0.444\nsamples = 9\nvalue = [6, 3]"] ;
1094 -> 1095 ;
1096 [label="gini = 0.444\nsamples = 6\nvalue = [4, 2]"] ;
1095 -> 1096 ;
1097 [label="gini = 0.444\nsamples = 3\nvalue = [2, 1]"] ;
1095 -> 1097 ;
1098 [label="age <= 53.5\ngini = 0.226\nsamples = 54\nvalue = [47, 7]"] ;
1094 -> 1098 ;
1099 [label="hours-per-week <= 31.0\ngini = 0.133\nsamples = 14\nvalue = [13, 1]"] ;
1098 -> 1099 ;
1100 [label="gini = 0.165\nsamples = 11\nvalue = [10, 1]"] ;
1099 -> 1100 ;
1101 [label="gini = 0.0\nsamples = 3\nvalue = [3, 0]"] ;
1099 -> 1101 ;
1102 [label="hours-per-week <= 29.5\ngini = 0.255\nsamples = 40\nvalue = [34, 6]"] ;
1098 -> 1102 ;
1103 [label="gini = 0.0\nsamples = 2\nvalue = [2, 0]"] ;
1102 -> 1103 ;
1104 [label="age <= 54.5\ngini = 0.266\nsamples = 38\nvalue = [32, 6]"] ;
1102 -> 1104 ;
1105 [label="hours-per-week <= 31.0\ngini = 0.219\nsamples = 16\nvalue = [14, 2]"] ;
1104 -> 1105 ;
1106 [label="capital-gain <= 1414.5\ngini = 0.165\nsamples = 11\nvalue = [10, 1]"] ;
1105 -> 1106 ;
1107 [label="gini = 0.18\nsamples = 10\nvalue = [9, 1]"] ;
1106 -> 1107 ;
1108 [label="gini = 0.0\nsamples = 1\nvalue = [1, 0]"] ;
1106 -> 1108 ;
1109 [label="gini = 0.32\nsamples = 5\nvalue = [4, 1]"] ;
1105 -> 1109 ;
1110 [label="hours-per-week <= 31.0\ngini = 0.298\nsamples = 22\nvalue = [18, 4]"] ;
1104 -> 1110 ;
1111 [label="age <= 55.5\ngini = 0.337\nsamples = 14\nvalue = [11, 3]"] ;
1110 -> 1111 ;
1112 [label="gini = 0.346\nsamples = 9\nvalue = [7, 2]"] ;
1111 -> 1112 ;
1113 [label="gini = 0.32\nsamples = 5\nvalue = [4, 1]"] ;
1111 -> 1113 ;
1114 [label="age <= 55.5\ngini = 0.219\nsamples = 8\nvalue = [7, 1]"] ;
1110 -> 1114 ;
1115 [label="gini = 0.0\nsamples = 2\nvalue = [2, 0]"] ;
1114 -> 1115 ;
1116 [label="gini = 0.278\nsamples = 6\nvalue = [5, 1]"] ;
1114 -> 1116 ;
1117 [label="hours-per-week <= 31.0\ngini = 0.124\nsamples = 30\nvalue = [28, 2]"] ;
1087 -> 1117 ;
1118 [label="capital-loss <= 881.0\ngini = 0.147\nsamples = 25\nvalue = [23, 2]"] ;
1117 -> 1118 ;
1119 [label="age <= 58.5\ngini = 0.153\nsamples = 24\nvalue = [22, 2]"] ;
1118 -> 1119 ;
1120 [label="age <= 57.5\ngini = 0.124\nsamples = 15\nvalue = [14, 1]"] ;
1119 -> 1120 ;
1121 [label="gini = 0.18\nsamples = 10\nvalue = [9, 1]"] ;
1120 -> 1121 ;
1122 [label="gini = 0.0\nsamples = 5\nvalue = [5, 0]"] ;
1120 -> 1122 ;
1123 [label="capital-gain <= 1442.5\ngini = 0.198\nsamples = 9\nvalue = [8, 1]"] ;
1119 -> 1123 ;
1124 [label="gini = 0.219\nsamples = 8\nvalue = [7, 1]"] ;
1123 -> 1124 ;
1125 [label="gini = 0.0\nsamples = 1\nvalue = [1, 0]"] ;
1123 -> 1125 ;
1126 [label="gini = 0.0\nsamples = 1\nvalue = [1, 0]"] ;
1118 -> 1126 ;
1127 [label="gini = 0.0\nsamples = 5\nvalue = [5, 0]"] ;
1117 -> 1127 ;
1128 [label="hours-per-week <= 31.5\ngini = 0.307\nsamples = 37\nvalue = [30, 7]"] ;
1086 -> 1128 ;
1129 [label="age <= 61.5\ngini = 0.285\nsamples = 29\nvalue = [24, 5]"] ;
1128 -> 1129 ;
1130 [label="hours-per-week <= 30.5\ngini = 0.188\nsamples = 19\nvalue = [17, 2]"] ;
1129 -> 1130 ;
1131 [label="age <= 60.5\ngini = 0.198\nsamples = 18\nvalue = [16, 2]"] ;
1130 -> 1131 ;
1132 [label="gini = 0.198\nsamples = 9\nvalue = [8, 1]"] ;
1131 -> 1132 ;
1133 [label="gini = 0.198\nsamples = 9\nvalue = [8, 1]"] ;
1131 -> 1133 ;
1134 [label="gini = 0.0\nsamples = 1\nvalue = [1, 0]"] ;
1130 -> 1134 ;
1135 [label="capital-gain <= 1480.5\ngini = 0.42\nsamples = 10\nvalue = [7, 3]"] ;
1129 -> 1135 ;
1136 [label="gini = 0.444\nsamples = 9\nvalue = [6, 3]"] ;
1135 -> 1136 ;
1137 [label="gini = 0.0\nsamples = 1\nvalue = [1, 0]"] ;
1135 -> 1137 ;
1138 [label="age <= 61.5\ngini = 0.375\nsamples = 8\nvalue = [6, 2]"] ;
1128 -> 1138 ;
1139 [label="age <= 60.5\ngini = 0.5\nsamples = 4\nvalue = [2, 2]"] ;
1138 -> 1139 ;
1140 [label="gini = 0.444\nsamples = 3\nvalue = [2, 1]"] ;
1139 -> 1140 ;
1141 [label="gini = 0.0\nsamples = 1\nvalue = [0, 1]"] ;
1139 -> 1141 ;
1142 [label="gini = 0.0\nsamples = 4\nvalue = [4, 0]"] ;
1138 -> 1142 ;
1143 [label="age <= 55.0\ngini = 0.444\nsamples = 3\nvalue = [1, 2]"] ;
1085 -> 1143 ;
1144 [label="gini = 0.0\nsamples = 2\nvalue = [0, 2]"] ;
1143 -> 1144 ;
1145 [label="gini = 0.0\nsamples = 1\nvalue = [1, 0]"] ;
1143 -> 1145 ;
1146 [label="gini = 0.0\nsamples = 29\nvalue = [29, 0]"] ;
942 -> 1146 ;
1147 [label="capital-gain <= 200.5\ngini = 0.129\nsamples = 793\nvalue = [738, 55]"] ;
545 -> 1147 ;
1148 [label="age <= 79.5\ngini = 0.14\nsamples = 726\nvalue = [671, 55]"] ;
1147 -> 1148 ;
1149 [label="age <= 78.5\ngini = 0.149\nsamples = 666\nvalue = [612, 54]"] ;
1148 -> 1149 ;
1150 [label="hours-per-week <= 33.5\ngini = 0.141\nsamples = 655\nvalue = [605, 50]"] ;
1149 -> 1150 ;
1151 [label="hours-per-week <= 30.5\ngini = 0.139\nsamples = 650\nvalue = [601, 49]"] ;
1150 -> 1151 ;
1152 [label="hours-per-week <= 21.5\ngini = 0.144\nsamples = 629\nvalue = [580, 49]"] ;
1151 -> 1152 ;
1153 [label="hours-per-week <= 12.5\ngini = 0.129\nsamples = 446\nvalue = [415, 31]"] ;
1152 -> 1153 ;
1154 [label="age <= 71.5\ngini = 0.165\nsamples = 209\nvalue = [190, 19]"] ;
1153 -> 1154 ;
1155 [label="hours-per-week <= 7.5\ngini = 0.191\nsamples = 140\nvalue = [125, 15]"] ;
1154 -> 1155 ;
1156 [label="hours-per-week <= 1.5\ngini = 0.121\nsamples = 62\nvalue = [58, 4]"] ;
1155 -> 1156 ;
1157 [label="age <= 66.0\ngini = 0.375\nsamples = 4\nvalue = [3, 1]"] ;
1156 -> 1157 ;
1158 [label="gini = 0.0\nsamples = 1\nvalue = [0, 1]"] ;
1157 -> 1158 ;
1159 [label="gini = 0.0\nsamples = 3\nvalue = [3, 0]"] ;
1157 -> 1159 ;
1160 [label="hours-per-week <= 3.5\ngini = 0.098\nsamples = 58\nvalue = [55, 3]"] ;
1156 -> 1160 ;
1161 [label="gini = 0.0\nsamples = 19\nvalue = [19, 0]"] ;
1160 -> 1161 ;
1162 [label="hours-per-week <= 5.5\ngini = 0.142\nsamples = 39\nvalue = [36, 3]"] ;
1160 -> 1162 ;
1163 [label="age <= 63.5\ngini = 0.211\nsamples = 25\nvalue = [22, 3]"] ;
1162 -> 1163 ;
1164 [label="gini = 0.0\nsamples = 3\nvalue = [3, 0]"] ;
1163 -> 1164 ;
1165 [label="age <= 66.5\ngini = 0.236\nsamples = 22\nvalue = [19, 3]"] ;
1163 -> 1165 ;
1166 [label="hours-per-week <= 4.5\ngini = 0.278\nsamples = 12\nvalue = [10, 2]"] ;
1165 -> 1166 ;
1167 [label="gini = 0.0\nsamples = 5\nvalue = [5, 0]"] ;
1166 -> 1167 ;
1168 [label="age <= 65.0\ngini = 0.408\nsamples = 7\nvalue = [5, 2]"] ;
1166 -> 1168 ;
1169 [label="gini = 0.278\nsamples = 6\nvalue = [5, 1]"] ;
1168 -> 1169 ;
1170 [label="gini = 0.0\nsamples = 1\nvalue = [0, 1]"] ;
1168 -> 1170 ;
1171 [label="hours-per-week <= 4.5\ngini = 0.18\nsamples = 10\nvalue = [9, 1]"] ;
1165 -> 1171 ;
1172 [label="age <= 69.5\ngini = 0.375\nsamples = 4\nvalue = [3, 1]"] ;
1171 -> 1172 ;
1173 [label="gini = 0.0\nsamples = 2\nvalue = [2, 0]"] ;
1172 -> 1173 ;
1174 [label="gini = 0.5\nsamples = 2\nvalue = [1, 1]"] ;
1172 -> 1174 ;
1175 [label="gini = 0.0\nsamples = 6\nvalue = [6, 0]"] ;
1171 -> 1175 ;
1176 [label="gini = 0.0\nsamples = 14\nvalue = [14, 0]"] ;
1162 -> 1176 ;
1177 [label="age <= 69.5\ngini = 0.242\nsamples = 78\nvalue = [67, 11]"] ;
1155 -> 1177 ;
1178 [label="age <= 68.5\ngini = 0.192\nsamples = 65\nvalue = [58, 7]"] ;
1177 -> 1178 ;
1179 [label="hours-per-week <= 9.5\ngini = 0.215\nsamples = 57\nvalue = [50, 7]"] ;
1178 -> 1179 ;
1180 [label="hours-per-week <= 8.5\ngini = 0.298\nsamples = 22\nvalue = [18, 4]"] ;
1179 -> 1180 ;
1181 [label="age <= 63.5\ngini = 0.245\nsamples = 21\nvalue = [18, 3]"] ;
1180 -> 1181 ;
1182 [label="gini = 0.5\nsamples = 2\nvalue = [1, 1]"] ;
1181 -> 1182 ;
1183 [label="age <= 65.5\ngini = 0.188\nsamples = 19\nvalue = [17, 2]"] ;
1181 -> 1183 ;
1184 [label="gini = 0.0\nsamples = 8\nvalue = [8, 0]"] ;
1183 -> 1184 ;
1185 [label="age <= 67.5\ngini = 0.298\nsamples = 11\nvalue = [9, 2]"] ;
1183 -> 1185 ;
1186 [label="age <= 66.5\ngini = 0.375\nsamples = 8\nvalue = [6, 2]"] ;
1185 -> 1186 ;
1187 [label="gini = 0.444\nsamples = 3\nvalue = [2, 1]"] ;
1186 -> 1187 ;
1188 [label="gini = 0.32\nsamples = 5\nvalue = [4, 1]"] ;
1186 -> 1188 ;
1189 [label="gini = 0.0\nsamples = 3\nvalue = [3, 0]"] ;
1185 -> 1189 ;
1190 [label="gini = 0.0\nsamples = 1\nvalue = [0, 1]"] ;
1180 -> 1190 ;
1191 [label="age <= 67.5\ngini = 0.157\nsamples = 35\nvalue = [32, 3]"] ;
1179 -> 1191 ;
1192 [label="age <= 64.5\ngini = 0.074\nsamples = 26\nvalue = [25, 1]"] ;
1191 -> 1192 ;
1193 [label="hours-per-week <= 10.5\ngini = 0.142\nsamples = 13\nvalue = [12, 1]"] ;
1192 -> 1193 ;
1194 [label="age <= 63.5\ngini = 0.278\nsamples = 6\nvalue = [5, 1]"] ;
1193 -> 1194 ;
1195 [label="gini = 0.0\nsamples = 1\nvalue = [1, 0]"] ;
1194 -> 1195 ;
1196 [label="gini = 0.32\nsamples = 5\nvalue = [4, 1]"] ;
1194 -> 1196 ;
1197 [label="gini = 0.0\nsamples = 7\nvalue = [7, 0]"] ;
1193 -> 1197 ;
1198 [label="gini = 0.0\nsamples = 13\nvalue = [13, 0]"] ;
1192 -> 1198 ;
1199 [label="capital-loss <= 209.5\ngini = 0.346\nsamples = 9\nvalue = [7, 2]"] ;
1191 -> 1199 ;
1200 [label="hours-per-week <= 11.0\ngini = 0.375\nsamples = 8\nvalue = [6, 2]"] ;
1199 -> 1200 ;
1201 [label="gini = 0.32\nsamples = 5\nvalue = [4, 1]"] ;
1200 -> 1201 ;
1202 [label="gini = 0.444\nsamples = 3\nvalue = [2, 1]"] ;
1200 -> 1202 ;
1203 [label="gini = 0.0\nsamples = 1\nvalue = [1, 0]"] ;
1199 -> 1203 ;
1204 [label="gini = 0.0\nsamples = 8\nvalue = [8, 0]"] ;
1178 -> 1204 ;
1205 [label="hours-per-week <= 9.5\ngini = 0.426\nsamples = 13\nvalue = [9, 4]"] ;
1177 -> 1205 ;
1206 [label="gini = 0.0\nsamples = 3\nvalue = [3, 0]"] ;
1205 -> 1206 ;
1207 [label="hours-per-week <= 11.0\ngini = 0.48\nsamples = 10\nvalue = [6, 4]"] ;
1205 -> 1207 ;
1208 [label="age <= 70.5\ngini = 0.49\nsamples = 7\nvalue = [4, 3]"] ;
1207 -> 1208 ;
1209 [label="gini = 0.0\nsamples = 1\nvalue = [0, 1]"] ;
1208 -> 1209 ;
1210 [label="gini = 0.444\nsamples = 6\nvalue = [4, 2]"] ;
1208 -> 1210 ;
1211 [label="age <= 70.5\ngini = 0.444\nsamples = 3\nvalue = [2, 1]"] ;
1207 -> 1211 ;
1212 [label="gini = 0.0\nsamples = 2\nvalue = [2, 0]"] ;
1211 -> 1212 ;
1213 [label="gini = 0.0\nsamples = 1\nvalue = [0, 1]"] ;
1211 -> 1213 ;
1214 [label="age <= 76.5\ngini = 0.109\nsamples = 69\nvalue = [65, 4]"] ;
1154 -> 1214 ;
1215 [label="age <= 73.5\ngini = 0.068\nsamples = 57\nvalue = [55, 2]"] ;
1214 -> 1215 ;
1216 [label="age <= 72.5\ngini = 0.142\nsamples = 26\nvalue = [24, 2]"] ;
1215 -> 1216 ;
1217 [label="gini = 0.0\nsamples = 12\nvalue = [12, 0]"] ;
1216 -> 1217 ;
1218 [label="hours-per-week <= 5.5\ngini = 0.245\nsamples = 14\nvalue = [12, 2]"] ;
1216 -> 1218 ;
1219 [label="gini = 0.0\nsamples = 3\nvalue = [3, 0]"] ;
1218 -> 1219 ;
1220 [label="hours-per-week <= 7.0\ngini = 0.298\nsamples = 11\nvalue = [9, 2]"] ;
1218 -> 1220 ;
